#include "neural_nets.h"
     
// fingertip net for sensor B3
const NeuralNet sensor_B3 = {

//     weights and biases for NN (constant)
    //b1[] = 
    {-0.43488460779190f, 0.00000000000000f, -0.04605933651328f,
    -0.18062084913254f, 0.00000000000000f, -0.33821794390678f,
    0.05267602950335f, 0.11574709415436f, 0.21509127318859f,
    -0.25664201378822f, -0.62069171667099f, -0.02639623917639f},
    //b2[] = 
    {0.37931627035141f, -0.03168093413115f, -0.03167705610394f,
    -0.00553848780692f, 0.17256997525692f, 0.08112301677465f,
    -0.49935284256935f, 0.22627235949039f, 0.32656612992287f,
    0.05530874058604f, -0.14015980064869f, 0.12745451927185f,
    -0.12510029971600f, 0.33805954456329f, 0.12334481626749f,
    -0.04857898876071f, 0.18666487932205f, 0.19746245443821f,
    -0.03135868161917f, -0.06342172622681f, -0.02402093261480f,
    -0.03359149768949f, -0.09947477281094f, -0.15476217865944f,
    -0.03162727132440f, 0.28210777044296f, -0.06271331757307f,
    0.04949298501015f, -0.30379891395569f, -0.00999360252172f,
    0.05135190859437f, 0.21755658090115f, -0.34119394421577f,
    0.46692118048668f, 0.46513977646828f, -0.06331612169743f,
    0.00000000000000f, 0.00000000000000f, -0.01103342976421f,
    -0.07534733414650f, -0.32495895028114f, -0.14634597301483f,
    0.01918042637408f, -0.01411598734558f, 0.15283934772015f,
    -0.19942064583302f, -0.05967826768756f, 0.64811533689499f,
    -0.03417144343257f, -0.07067451626062f, -0.51046520471573f,
    -0.10439145565033f, -0.05851486697793f, -0.31104534864426f,
    0.02195497043431f, 0.04713020846248f, 0.39490807056427f,
    -0.55557739734650f, -0.09428220242262f, -0.26086342334747f,
    0.05622253194451f, 0.25289624929428f, 0.21936801075935f,
    -0.10140008479357f},
    //b3[] =  
    {-0.11136773228645f, -0.06801280379295f, -0.17653466761112f,
    0.29177430272102f, -0.51142126321793f, -0.12085152417421f,
    -0.09780514985323f, 0.06451199948788f, 0.20960906147957f,
    0.37603032588959f, 0.12904441356659f, -0.09279944747686f,
    0.41128242015839f, -0.07248887419701f, 0.04174907505512f,
    -0.09574893116951f, -0.09222143888474f, -0.40340051054955f,
    0.09524244815111f, -0.03946809470654f, 0.06539786607027f,
    0.25736033916473f, 0.31142574548721f, 0.01785537227988f,
    0.28410097956657f, -0.09254074096680f, -0.02405213192105f,
    -0.20319575071335f, -0.17247639596462f, -0.10619170963764f,
    0.21835494041443f, 0.23924660682678f, 0.15217496454716f,
    -0.13449625670910f, 0.28898611664772f, -0.10554046928883f,
    -0.09508729726076f, 0.31250900030136f, -0.16714003682137f,
    -0.12089731544256f, -0.36339089274406f, 0.11165494471788f,
    0.12004193663597f, 0.09609154611826f, 0.15813095867634f,
    0.05459091439843f, -0.01464588101953f, -0.13948296010494f,
    -0.05937115475535f, -0.27368614077568f, 0.25161644816399f,
    -0.03972306475043f, 0.31769531965256f, 0.05416838824749f,
    -0.10591435432434f, -0.30867511034012f, -0.18517598509789f,
    -0.09892670065165f, 0.06508881598711f, 0.06375690549612f,
    -0.18192096054554f, 0.18033976852894f, 0.42250299453735f,
    0.18813617527485f},
    //b4[] =
    {0.34853255748749f, 0.44365745782852f, 0.49861496686935f,
     0.35498362779617f, 0.25369203090668f},
    
    //w1[][] = 
    { {-0.28250914812088f, 0.02440989017487f, 0.10754635930061f,
    0.29944837093353f, -0.35972630977631f, -0.91515493392944f,
    -0.37386381626129f, -0.53143864870071f, -0.58254015445709f,
    0.77778893709183f, 1.05564761161804f, 0.44041907787323f},
    {-0.19590339064598f, -0.36617353558540f, -1.17091703414917f,
    -0.14354461431503f, 0.37462252378464f, 1.97687673568726f,
    0.94192218780518f, 0.35539174079895f, 0.16974262893200f,
    0.74630153179169f, -0.08978035300970f, 0.73072522878647f},
    {-0.77918684482574f, -0.01107001304626f, 0.34115523099899f,
    0.25044500827789f, -0.52139109373093f, -0.01782487891614f,
    0.10539832711220f, -0.03091650456190f, 0.54752677679062f,
    -0.13431397080421f, -1.00044405460358f, 0.40346196293831f},
    {0.84205025434494f, -0.21252629160881f, 0.60355079174042f,
    1.03731524944305f, -0.34793454408646f, 0.31706470251083f,
    0.02859134972095f, -0.35227811336517f, -0.21112914383411f,
    -1.35204684734344f, 0.18050555884838f, -0.21863269805908f},
    {0.93252724409103f, 0.02584803104401f, 0.02059751190245f,
    -0.39033636450768f, -0.36217248439789f, 0.38748654723167f,
    -0.56426751613617f, -0.85938799381256f, -0.47376781702042f,
    0.82765370607376f, 0.40560805797577f, -0.58739382028580f},
    {-0.71944093704224f, -0.25569149851799f, -1.02299427986145f,
    1.00973534584045f, -0.40936422348022f, -0.09097852557898f,
    0.88648808002472f, 0.22895507514477f, 2.33966922760010f,
    0.12400268763304f, 0.82080984115601f, -1.91983032226562f},
    {0.61006206274033f, 0.38474798202515f, 0.91742980480194f,
    -1.30623722076416f, -0.30663335323334f, -0.03554778918624f,
    1.14778888225555f, 0.30524736642838f, -0.92395204305649f,
    -0.43312448263168f, 0.09869162738323f, -0.21693417429924f},
    {0.42351964116096f, -0.53096956014633f, 0.33248859643936f,
    0.29428127408028f, 0.31108307838440f, 0.20703789591789f,
    -0.22983945906162f, 1.12122130393982f, 0.09417663514614f,
    -0.03068070113659f, 0.32128062844276f, 0.44122922420502f} },
    //w2[][] = 
    { {-1.28476023674011f, -0.22639998793602f, -0.16480001807213f,
    -0.13128221035004f, -1.64051890373230f, -0.14065681397915f,
    0.39294549822807f, 0.07065458595753f, 0.11224173009396f,
    -1.49112105369568f, -0.10692728310823f, 0.36357861757278f,
    0.12094740569592f, -1.14995193481445f, 0.34272110462189f,
    -0.04184893891215f, 0.30031779408455f, -3.01043343544006f,
    0.16105209290981f, 0.20184296369553f, 0.43012455105782f,
    0.22548775374889f, 0.75619518756866f, -0.72914147377014f,
    -0.02543690800667f, 0.49071952700615f, -0.23294299840927f,
    -0.22748975455761f, -0.65612471103668f, -0.32249808311462f,
    0.09720284491777f, -0.22498786449432f, 0.13733859360218f,
    -0.39725401997566f, -0.83861434459686f, -0.11584116518497f,
    -0.09156183898449f, -0.04520587623119f, -0.52967536449432f,
    0.23929977416992f, 0.12704503536224f, 0.15990737080574f,
    -0.60132998228073f, -0.16491013765335f, 0.14437082409859f,
    -0.00764353992417f, 0.00417900225148f, -0.37643191218376f,
    -0.11894045770168f, 0.11645890772343f, 0.10814411938190f,
    0.52919125556946f, -0.14235299825668f, 0.63212841749191f,
    0.43144941329956f, -0.09993574023247f, -0.99540323019028f,
    -0.62287688255310f, 0.10351867973804f, -0.27612975239754f,
    -0.08060234785080f, -0.77031522989273f, -0.28209188580513f,
    0.10227252542973f},
    {0.18793132901192f, -0.06010194122791f, -0.15490950644016f,
    0.26731136441231f, -0.20655846595764f, -0.28059220314026f,
    -0.15814021229744f, 0.25054100155830f, -0.07068519294262f,
    0.05603888630867f, 0.25758382678032f, -0.04628147184849f,
    -0.10480619966984f, 0.09793224930763f, 0.10871794819832f,
    -0.16017055511475f, 0.05637282133102f, 0.16715103387833f,
    0.02177831530571f, -0.04754704236984f, 0.23724964261055f,
    -0.25965347886086f, -0.17914140224457f, 0.14836171269417f,
    0.18587306141853f, 0.01299127936363f, 0.15139496326447f,
    -0.17895597219467f, -0.04294517636299f, -0.24261480569839f,
    0.07703676819801f, 0.09307500720024f, 0.16437202692032f,
    -0.03371202945709f, 0.23296043276787f, 0.16265827417374f,
    0.12358772754669f, 0.03563871979713f, -0.01103067398071f,
    -0.12894497811794f, 0.06126496195793f, -0.21867832541466f,
    -0.16085678339005f, -0.11438393592834f, -0.26024243235588f,
    -0.09598752856255f, 0.27830383181572f, -0.13801413774490f,
    -0.20359268784523f, -0.09296226501465f, 0.15677142143250f,
    -0.08421459794044f, 0.01635381579399f, -0.03756983578205f,
    0.26484784483910f, -0.14610944688320f, 0.26153722405434f,
    0.23447975516319f, 0.15643632411957f, 0.24849691987038f,
    0.24264362454414f, 0.11992299556732f, 0.02920663356781f,
    -0.08983062207699f},
    {0.33434030413628f, 0.10430449992418f, -0.30346536636353f,
    -0.76837313175201f, 0.41743007302284f, -0.14420194923878f,
    -0.77280157804489f, 0.36963465809822f, 0.73516821861267f,
    -0.38306054472923f, 0.09982308000326f, -0.69144397974014f,
    -0.08039693534374f, 0.59433120489120f, 0.69101935625076f,
    0.09301670640707f, -0.08265186101198f, -1.20622932910919f,
    -0.06514669954777f, -0.05287392064929f, -0.21142688393593f,
    -0.15479280054569f, 0.05244521796703f, 0.38719457387924f,
    -0.30853557586670f, 0.76579308509827f, 0.07291684299707f,
    0.83063238859177f, -0.64737802743912f, -0.14497159421444f,
    0.58989006280899f, -0.07970247417688f, 0.17042662203312f,
    -0.07177922874689f, 0.32029429078102f, -0.15526190400124f,
    -0.25850740075111f, -0.23886209726334f, 0.31670787930489f,
    -1.43337070941925f, 0.37808755040169f, -0.28995084762573f,
    -0.06646190583706f, -0.22751511633396f, 0.38174086809158f,
    0.33017915487289f, 0.10325717180967f, 0.21904467046261f,
    -0.11964857578278f, -0.05603874474764f, 0.03729746863246f,
    -0.01404411718249f, -0.11340288072824f, 0.30100503563881f,
    0.17880044877529f, -0.17043007910252f, -0.30904674530029f,
    -2.12842082977295f, -0.01962964236736f, -0.58657425642014f,
    -0.21385791897774f, -0.05615671724081f, -0.55317765474319f,
    0.08908449858427f},
    {-0.16386188566685f, -0.29317390918732f, -0.09868634492159f,
    0.01061025168747f, 0.36216810345650f, -0.85970079898834f,
    0.09806063771248f, -0.74595558643341f, 0.20465418696404f,
    0.52660900354385f, -0.02297306619585f, 0.51021069288254f,
    0.54348081350327f, -0.02214188873768f, -0.10652894526720f,
    0.97884684801102f, -0.08259871602058f, -0.42837032675743f,
    0.05188786238432f, -0.16198678314686f, 0.40564149618149f,
    -0.30054783821106f, -0.26973557472229f, -0.18097950518131f,
    -0.24232132732868f, -0.19133107364178f, -0.04061236605048f,
    -0.35530087351799f, -0.17287133634090f, -0.25420027971268f,
    -0.46006920933723f, 0.12498052418232f, 0.59047222137451f,
    -0.47108712792397f, -0.96599960327148f, -0.27578452229500f,
    -0.19178365170956f, -0.21915590763092f, 0.11621982604265f,
    0.07612176239491f, 0.95122057199478f, 0.08709734678268f,
    -0.49612176418304f, 0.02431150712073f, -0.14820994436741f,
    -0.33568352460861f, -0.21513751149178f, -0.84950327873230f,
    -0.05033331364393f, -0.11464052647352f, 0.66112339496613f,
    0.05938789620996f, 0.07200473546982f, -0.59845966100693f,
    -0.23655107617378f, 0.01621075533330f, -0.63857996463776f,
    0.35143393278122f, 0.15792664885521f, 0.61727476119995f,
    0.40790066123009f, -0.86127018928528f, -0.40036767721176f,
    -0.04090149328113f},
    {-0.28039607405663f, 0.06667497754097f, -0.28040778636932f,
    0.24564042687416f, 0.13068008422852f, -0.02700266242027f,
    0.06507635116577f, -0.15414319932461f, -0.16057550907135f,
    -0.14292883872986f, -0.23864853382111f, 0.04090386629105f,
    0.18911644816399f, -0.21733176708221f, -0.05181388556957f,
    0.25552353262901f, -0.15556453168392f, -0.24742795526981f,
    -0.08037856221199f, 0.26943048834801f, 0.12783166766167f,
    -0.28048363327980f, -0.12677243351936f, -0.28065183758736f,
    -0.10906434059143f, 0.25569441914558f, -0.07743321359158f,
    0.04542773962021f, 0.19379809498787f, -0.08075363934040f,
    -0.17171932756901f, -0.15853720903397f, 0.13123047351837f,
    0.00297489762306f, 0.09555214643478f, 0.07730922102928f,
    0.17698922753334f, 0.08889228105545f, -0.21777597069740f,
    0.03551593422890f, -0.04085950553417f, 0.18337959051132f,
    0.04915875196457f, 0.06501758098602f, 0.11313948035240f,
    -0.18936672806740f, 0.06805142760277f, 0.10934028029442f,
    -0.24546810984612f, 0.05495002865791f, -0.00259518623352f,
    -0.11899712681770f, -0.12487380206585f, -0.23670837283134f,
    0.14429059624672f, 0.08432015776634f, -0.14183267951012f,
    0.24409750103951f, -0.11695367097855f, -0.14343380928040f,
    -0.16418090462685f, -0.24510414898396f, 0.26612696051598f,
    0.03846904635429f},
    {0.21262536942959f, -0.24536021053791f, -0.21104073524475f,
    0.39162838459015f, -1.62820434570312f, 1.26634883880615f,
    -0.30725988745689f, 1.02452671527863f, -1.84559774398804f,
    -0.02837487496436f, -0.38618043065071f, -1.07358324527740f,
    0.71395695209503f, -0.36389547586441f, -0.89854151010513f,
    -0.91763776540756f, 0.89205938577652f, -0.83901429176331f,
    -0.24760451912880f, -0.10193250328302f, 0.40442994236946f,
    -0.09638846665621f, 0.18810974061489f, -0.40233919024467f,
    -0.08760769665241f, -0.82169514894485f, -0.22333224117756f,
    -0.32676929235458f, -0.06280101090670f, -0.16094289720058f,
    0.45493665337563f, -0.10505890846252f, 0.95846289396286f,
    -0.38885810971260f, -0.38078814744949f, -0.15039578080177f,
    -0.05879844725132f, -0.19148327410221f, -0.48395487666130f,
    0.22698467969894f, -0.15555575489998f, -0.23694127798080f,
    0.11807982623577f, 0.01659137755632f, -0.02382508292794f,
    0.10985197871923f, -0.29338365793228f, -0.50908887386322f,
    0.07463961094618f, 0.10440684854984f, 0.57343769073486f,
    0.44952780008316f, -0.04269805923104f, 0.43007534742355f,
    0.10951963067055f, -0.10361051559448f, -0.99078565835953f,
    0.17330531775951f, -0.34441298246384f, 0.71346145868301f,
    0.08523751050234f, 0.43611019849777f, 0.36812543869019f,
    -0.16515299677849f},
    {-0.46233928203583f, -0.07387744635344f, -0.30432191491127f,
    0.53854161500931f, -0.19773441553116f, 0.10278356820345f,
    -0.56491017341614f, -0.20464369654655f, -0.71292322874069f,
    -1.17954111099243f, 0.12713679671288f, 0.04022639989853f,
    -0.87958598136902f, -0.01008378434926f, -0.35395902395248f,
    -0.63789844512939f, -0.75430774688721f, 0.38754662871361f,
    -0.16440454125404f, -0.33600854873657f, -0.63354611396790f,
    -0.19991742074490f, -0.05960902571678f, -0.51466745138168f,
    -0.05907323956490f, 0.41385945677757f, -0.16257098317146f,
    0.27864727377892f, -0.27443775534630f, -0.06016216054559f,
    0.23146882653236f, -0.46574565768242f, -0.00509219802916f,
    -0.02994338050485f, -0.29305538535118f, 0.05113723874092f,
    0.13529065251350f, -0.24140858650208f, 0.33452200889587f,
    0.14413113892078f, 0.15785422921181f, -0.20979472994804f,
    0.11022966355085f, -0.03412858396769f, 0.91191035509109f,
    -0.86329823732376f, 0.85433954000473f, 0.15770180523396f,
    -0.30997675657272f, -0.26445549726486f, -0.53292965888977f,
    -0.89204108715057f, -0.12598185241222f, 0.36620864272118f,
    -0.11529842019081f, -0.26156690716743f, 0.27478349208832f,
    0.24921876192093f, -0.23235745728016f, -0.07840090990067f,
    0.08981972187757f, 0.05382850021124f, 0.14196790754795f,
    -0.11336926370859f},
    {-0.06592287868261f, -0.26668906211853f, -0.04543592035770f,
    -0.46380531787872f, -0.01980063319206f, 0.07251641154289f,
    0.77627736330032f, -0.72118353843689f, -0.81721484661102f,
    -0.45523890852928f, 0.07466052472591f, -2.11420702934265f,
    0.27963915467262f, 0.40095669031143f, -0.23864653706551f,
    0.31523844599724f, -1.40983259677887f, 1.00706017017365f,
    -0.22100362181664f, -0.07940383255482f, -1.05023038387299f,
    -0.18276040256023f, -0.37048330903053f, 0.61393350362778f,
    0.11892015486956f, -0.77353358268738f, -0.28338295221329f,
    0.07461807876825f, 0.46152025461197f, 0.11223415285349f,
    0.51892185211182f, -0.66170728206635f, -0.02582834847271f,
    -0.77549898624420f, -0.04648545011878f, -0.25895026326180f,
    -0.10892908275127f, -0.06206046044827f, 0.60598409175873f,
    -0.30326548218727f, 0.33894762396812f, 0.10777199268341f,
    0.87848937511444f, -0.05749931931496f, -1.52393913269043f,
    1.04300117492676f, 0.01656336151063f, -0.64121556282043f,
    -0.07064191997051f, -0.34630089998245f, 0.98667818307877f,
    -0.04021209105849f, -0.22974197566509f, -0.29253193736076f,
    0.28025853633881f, -0.06069399788976f, 0.26728445291519f,
    -0.62283223867416f, 0.05773499235511f, 0.61983495950699f,
    -0.56682920455933f, -0.05900787189603f, 0.74626666307449f,
    0.00229675229639f},
    {-0.39965650439262f, -0.16421286761761f, -0.13551507890224f,
    -0.66126894950867f, -0.00185958819930f, 0.49547776579857f,
    0.42845341563225f, -0.53450310230255f, -1.19773197174072f,
    -0.42692810297012f, 0.01718501374125f, 0.05544441938400f,
    -1.03162884712219f, 0.36635175347328f, 1.14896595478058f,
    0.15212339162827f, -0.48621267080307f, -0.16423983871937f,
    0.00914702378213f, 0.02571013011038f, 0.90443623065948f,
    -0.06235162541270f, -0.46345347166061f, 0.01363335829228f,
    -0.28240472078323f, -0.24451759457588f, 0.05762924998999f,
    -0.14314149320126f, 0.72703677415848f, 0.11363361775875f,
    0.17688822746277f, -1.54918384552002f, -0.05832359567285f,
    0.57168233394623f, 0.44155344367027f, 0.07839979231358f,
    -0.17700126767159f, 0.19217801094055f, -0.63476097583771f,
    -0.43665716052055f, 0.30530273914337f, 0.09611276537180f,
    0.24456419050694f, -0.14535281062126f, -2.06125688552856f,
    0.51612526178360f, -0.38192400336266f, -0.86733585596085f,
    -0.18497414886951f, -0.22509543597698f, 0.21344354748726f,
    0.44478639960289f, -0.13306887447834f, 0.73184376955032f,
    -0.49186873435974f, 0.12771730124950f, -0.07130848616362f,
    0.90855729579926f, -0.30689793825150f, -0.11340256035328f,
    0.84627026319504f, 0.28374710679054f, 0.51720577478409f,
    -0.09527054429054f},
    {-0.33628851175308f, -0.17432709038258f, 0.02566146478057f,
    0.40405848622322f, -0.40402585268021f, 0.16529178619385f,
    0.24763453006744f, 0.12228865921497f, -0.42110833525658f,
    0.69451624155045f, -0.07209601253271f, 0.11161672323942f,
    -0.25388637185097f, -0.43532365560532f, 0.05222028121352f,
    0.43509802222252f, 0.33185604214668f, 0.34609055519104f,
    -0.01955211162567f, -0.33840134739876f, -0.23579299449921f,
    -0.02769073471427f, 0.86097186803818f, 0.75898587703705f,
    -0.02186680585146f, -0.89468348026276f, -0.31561303138733f,
    -0.16715157032013f, 1.15631198883057f, -0.34564781188965f,
    -0.33456707000732f, 0.33842369914055f, -1.11188805103302f,
    0.28061348199844f, 0.76193797588348f, -0.11536977440119f,
    -0.19465926289558f, -0.25557553768158f, -0.21924556791782f,
    0.51120394468307f, -1.40051543712616f, -0.06491998583078f,
    -0.56311738491058f, -0.14434623718262f, 0.06665776669979f,
    -0.05398165434599f, -0.06656252592802f, 0.10893160849810f,
    -0.22973199188709f, -0.06509215384722f, 0.10262369364500f,
    0.72665369510651f, -0.21928122639656f, -0.41788408160210f,
    -0.37422081828117f, -0.19152759015560f, 0.89912295341492f,
    0.54257845878601f, -0.27589902281761f, -0.09721635282040f,
    0.22304289042950f, 0.82679212093353f, -0.53568696975708f,
    -0.12531578540802f},
    {-2.09535217285156f, 0.02459951862693f, 0.02133711799979f,
    0.40467336773872f, 0.30082526803017f, -0.64118307828903f,
    -0.05813821032643f, -0.26320526003838f, -0.16946451365948f,
    -1.64347445964813f, -0.30322268605232f, 0.30614203214645f,
    -2.04432821273804f, -1.18817949295044f, -0.10989758372307f,
    -0.48206102848053f, -0.13315299153328f, -0.12389473617077f,
    -0.19757556915283f, -0.16580863296986f, -1.11269843578339f,
    -0.21561093628407f, 0.82634532451630f, 1.16404163837433f,
    -0.03559057042003f, -0.17899474501610f, 0.12881051003933f,
    0.59400618076324f, -0.04721886664629f, -0.10593084245920f,
    -1.26902401447296f, 1.00812923908234f, 0.59967839717865f,
    -0.17584343254566f, -0.36090078949928f, -0.06631311774254f,
    -0.01801162958145f, -0.20338621735573f, -0.47160553932190f,
    -0.78351241350174f, -0.44080555438995f, -0.24340184032917f,
    -1.16396951675415f, 0.10234122723341f, -0.67007476091385f,
    0.35023835301399f, 1.23699569702148f, 0.08977462351322f,
    -0.16954359412193f, -0.18138150870800f, 0.04380485415459f,
    0.14390215277672f, 0.09043164551258f, 0.13577467203140f,
    -0.99502331018448f, -0.26612877845764f, -0.08154640346766f,
    -1.41115725040436f, -0.23327621817589f, 0.45269078016281f,
    -1.25502872467041f, -0.79487520456314f, -0.94659984111786f,
    0.04649423062801f},
    {0.74355477094650f, 0.06745927780867f, 0.05662022903562f,
    0.16124556958675f, 0.47955822944641f, -0.61883586645126f,
    -0.79578465223312f, -0.11427414417267f, 0.54053860902786f,
    0.77171277999878f, -0.10356537252665f, 0.16702330112457f,
    0.80216765403748f, -0.45476558804512f, -0.64121896028519f,
    0.06825938075781f, -0.29235485196114f, -0.01199093926698f,
    -0.18878594040871f, -0.21297100186348f, -0.07446400076151f,
    0.10935965925455f, -0.10294914990664f, -0.48471620678902f,
    -0.00970089063048f, -0.31094801425934f, 0.19279317557812f,
    -0.19842045009136f, -0.24929329752922f, -0.13980443775654f,
    -0.10248273611069f, 0.27247017621994f, -0.20961050689220f,
    -0.79080170392990f, -0.10921712219715f, 0.08692124485970f,
    -0.08242958784103f, 0.16845497488976f, 0.77511394023895f,
    0.83091145753860f, -1.37640917301178f, -0.28006741404533f,
    0.31470859050751f, -0.25914794206619f, -0.17908407747746f,
    0.53174799680710f, -0.39826384186745f, 0.35401844978333f,
    0.22976280748844f, -0.21819444000721f, 0.05525664985180f,
    -0.46134820580482f, -0.03316725045443f, -0.49930399656296f,
    -0.87682998180389f, -0.30624461174011f, 0.13904507458210f,
    0.45829406380653f, -0.27369350194931f, -0.27049413323402f,
    -0.28873932361603f, -0.25189277529716f, 0.73263090848923f,
    -0.23845030367374f} },                
    //w3[][] = 
    { {-1.69597303867340f, 0.06536535918713f, -0.84383040666580f,
    0.25362026691437f, 1.41860830783844f, 1.51662516593933f,
    -0.02772588469088f, 0.01871588267386f, 0.20950980484486f,
    0.17253972589970f, -0.07862760871649f, 0.56734859943390f,
    0.21492975950241f, -0.05579802766442f, -1.11441588401794f,
    1.02537167072296f, -0.12520015239716f, 0.97334712743759f,
    -0.02784441970289f, -0.26997688412666f, 0.85856491327286f,
    0.83486348390579f, -0.10205885022879f, -0.94779801368713f,
    0.58442842960358f, 0.20382171869278f, 0.26294559240341f,
    1.08775234222412f, -0.33872017264366f, 0.85317778587341f,
    -1.25424873828888f, -0.10072409361601f, -0.90747189521790f,
    -0.00619476148859f, -0.25757098197937f, -0.21108341217041f,
    -0.19142849743366f, 0.20410658419132f, -0.76231527328491f,
    0.03611122444272f, 0.21093152463436f, -0.73738551139832f,
    -0.14397183060646f, -0.35035309195518f, -1.10722017288208f,
    0.42595008015633f, -0.60787069797516f, -0.03881329298019f,
    0.12920288741589f, -1.57055771350861f, -4.00440549850464f,
    -0.15150184929371f, -0.46990495920181f, -0.33806523680687f,
    -0.23048260807991f, -0.29403120279312f, 0.68352049589157f,
    -0.03261105716228f, -0.34523299336433f, 0.80089896917343f,
    0.29157364368439f, -0.07092658430338f, 0.43514454364777f,
    -0.26376375555992f},
    {0.00699944794178f, 0.05521295964718f, 0.17095902562141f,
    -0.00151025399100f, 0.01725859940052f, 0.13973905146122f,
    0.10130994021893f, 0.03070614859462f, -0.02499543130398f,
    -0.11775159835815f, -0.09511109441519f, 0.05224119126797f,
    -0.19284769892693f, -0.05501438677311f, 0.15125299990177f,
    -0.00813533365726f, -0.01011766493320f, 0.07784928381443f,
    -0.07196807116270f, 0.20317585766315f, -0.19978731870651f,
    -0.15260991454124f, 0.17414747178555f, -0.11951213330030f,
    0.17985968291759f, -0.12371832132339f, -0.18402488529682f,
    0.04910233616829f, -0.12616732716560f, 0.09866379201412f,
    -0.01392886042595f, -0.08759811520576f, -0.19224132597446f,
    -0.09498055279255f, 0.01941162906587f, -0.20194712281227f,
    0.14815069735050f, -0.19996216893196f, 0.12064088881016f,
    -0.09856921434402f, 0.01642237603664f, -0.12585346400738f,
    -0.17365765571594f, -0.08593584597111f, -0.19958281517029f,
    0.08094416558743f, -0.14371022582054f, -0.06933058798313f,
    -0.20569218695164f, -0.05671213567257f, 0.10823984444141f,
    -0.00762249529362f, 0.09759437292814f, -0.13675040006638f,
    0.11747224628925f, -0.05523785948753f, 0.03219259530306f,
    -0.09440536051989f, -0.06253813207150f, -0.12043667584658f,
    -0.08265662193298f, 0.16006675362587f, 0.10565458983183f,
    0.09714560210705f},
    {-0.17861403524876f, 0.02712467312813f, -0.19226419925690f,
    -0.18876463174820f, -0.08986701071262f, -0.19227245450020f,
    -0.13221120834351f, -0.15127538144588f, -0.04801307618618f,
    -0.10634205490351f, 0.10192821919918f, -0.04181800782681f,
    -0.03332439064980f, -0.21274645626545f, 0.12888972461224f,
    0.07467614114285f, -0.08463633060455f, 0.09453739225864f,
    -0.18252579867840f, 0.07347436249256f, 0.09225980937481f,
    0.16837461292744f, 0.20586718618870f, -0.18038213253021f,
    -0.05597717314959f, 0.17705909907818f, 0.01131671667099f,
    -0.10947843641043f, 0.04420439898968f, -0.14172999560833f,
    -0.19317266345024f, 0.12435714900494f, 0.00711579620838f,
    0.07682915031910f, -0.06478714942932f, 0.07846300303936f,
    0.18280498683453f, -0.09922365099192f, 0.08064086735249f,
    0.21558515727520f, 0.00028909454704f, -0.20112040638924f,
    0.14299041032791f, 0.08130211383104f, -0.19508402049541f,
    -0.03113459050655f, -0.16180033981800f, 0.06086809933186f,
    0.02334278821945f, -0.04435279965401f, 0.21319963037968f,
    -0.00289177335799f, 0.14711222052574f, -0.21447910368443f,
    0.11133040487766f, -0.17800438404083f, -0.00760814547539f,
    -0.11134041100740f, 0.10482424497604f, -0.06150750815868f,
    0.18097977340221f, 0.02702938020229f, -0.17787869274616f,
    0.09025637805462f},
    {-0.43152755498886f, 0.15995542705059f, 0.24618263542652f,
    -0.25083231925964f, -0.09741330146790f, 0.78884238004684f,
    -0.07208234071732f, -0.30133780837059f, -0.35732269287109f,
    -0.13001289963722f, -0.04486931487918f, 0.05721933394670f,
    -0.79148215055466f, -0.00515971332788f, -0.18249633908272f,
    0.00757099408656f, -0.06524385511875f, -0.63591533899307f,
    -0.52280986309052f, -0.12504389882088f, -4.85893917083740f,
    -0.89459455013275f, -4.11519241333008f, 0.62793892621994f,
    0.24856123328209f, -0.17639984190464f, 0.05694043636322f,
    0.03227467834949f, -0.71363991498947f, 0.57707619667053f,
    -0.20501215755939f, 0.28660407662392f, 0.19102133810520f,
    -0.17281618714333f, 0.11221795529127f, -0.15791358053684f,
    -0.18403218686581f, -0.40087312459946f, 0.52697873115540f,
    0.03118230961263f, -0.45847567915916f, -0.35807222127914f,
    -0.45213711261749f, 0.76295799016953f, 0.21017178893089f,
    0.14269225299358f, 0.08334854990244f, 0.09399960935116f,
    -0.09873486310244f, 0.10840919613838f, -0.35265731811523f,
    0.41911116242409f, -0.03178999572992f, -0.50856280326843f,
    -0.01640504598618f, 0.05364595353603f, -0.57643997669220f,
    -0.20572468638420f, 0.31184741854668f, 0.57782399654388f,
    0.02872241474688f, -0.84874218702316f, -0.02912656404078f,
    0.15314285457134f},
    {1.44847047328949f, -0.03766572475433f, 0.54388254880905f,
    -0.16842526197433f, -1.11692893505096f, -2.21735811233521f,
    -0.12083072960377f, -1.19444942474365f, -0.93162506818771f,
    0.47123089432716f, 1.09091389179230f, -0.08215468376875f,
    -0.00553105073050f, -0.05040504038334f, -2.11790204048157f,
    0.52948796749115f, 0.12473006546497f, 0.27411603927612f,
    -0.65492641925812f, 0.14773258566856f, 0.46632903814316f,
    -0.96304541826248f, -0.15726707875729f, 0.40835389494896f,
    0.19812868535519f, -0.03162609040737f, 0.90349930524826f,
    0.28143194317818f, 1.02276015281677f, -0.50285369157791f,
    0.18290011584759f, -0.14778831601143f, -0.19125148653984f,
    0.09163758158684f, 0.86780506372452f, -0.17892426252365f,
    0.13124802708626f, -0.01753283478320f, -0.00549778295681f,
    -0.01069358456880f, -0.03983724489808f, -0.04158310964704f,
    0.51932018995285f, -0.58131766319275f, -0.04065645858645f,
    -1.14070641994476f, -0.10610097646713f, -0.02049497701228f,
    0.15656785666943f, -0.11667031049728f, 0.06174330040812f,
    0.59458094835281f, -0.01168784126639f, -0.30654206871986f,
    -0.00521970214322f, -0.20274028182030f, 0.55185544490814f,
    -0.12418600916862f, 0.97301381826401f, -0.27883356809616f,
    0.41689130663872f, -0.78687435388565f, -0.53523194789886f,
    0.24897213280201f},
    {-0.27007412910461f, -2.14956116676331f, -0.81974589824677f,
    -0.42528575658798f, -0.46523442864418f, -0.82497221231461f,
    -0.15417216718197f, 0.17103584110737f, -1.87523877620697f,
    -0.64629942178726f, -1.00604939460754f, 0.01630374044180f,
    0.14981493353844f, -0.07436656951904f, 0.10940025746822f,
    -0.37518987059593f, -0.25744098424911f, -0.70984411239624f,
    -0.80106937885284f, 0.09630420804024f, 0.23902836441994f,
    0.40326067805290f, -1.38990294933319f, 0.71900582313538f,
    -0.26679378747940f, -0.06357179582119f, 0.53466296195984f,
    0.48689401149750f, -0.05320745334029f, 0.50701707601547f,
    -0.09435196220875f, 0.01010308507830f, 0.30668538808823f,
    -0.26144477725029f, -1.62796711921692f, -0.00568853039294f,
    0.04553719609976f, -0.19945368170738f, 0.42764362692833f,
    -0.28230839967728f, 0.09669025987387f, 0.49972572922707f,
    0.32214605808258f, 0.20113113522530f, 0.21133339405060f,
    0.02527873963118f, 0.31725266575813f, 0.10451308637857f,
    -0.03498415648937f, -0.03660467639565f, -0.38878834247589f,
    -0.17651432752609f, 0.24616684019566f, -0.45750841498375f,
    -0.15368349850178f, 0.20917627215385f, -1.47113060951233f,
    0.07934892922640f, 0.14956723153591f, 0.17967469990253f,
    -0.23981253802776f, 0.16145201027393f, -0.25913813710213f,
    0.01908839121461f},
    {0.16189388930798f, -0.16510081291199f, -1.49340343475342f,
    -0.12095121294260f, -0.38205909729004f, -0.03740425407887f,
    -0.00643241405487f, -0.19638967514038f, -0.08644045889378f,
    -0.02660831063986f, 0.16805046796799f, -0.05560542270541f,
    0.75308328866959f, -0.11902531236410f, -0.09654777497053f,
    0.18743197619915f, -0.11702940613031f, 1.04892826080322f,
    0.97650533914566f, 0.20804668962955f, -0.04339957982302f,
    -0.28186792135239f, -0.07082471251488f, -0.17141215503216f,
    -0.61464291810989f, 0.18937449157238f, 0.40724578499794f,
    -0.15359972417355f, 0.01657253503799f, 0.18513368070126f,
    0.11463674902916f, 0.08972844481468f, 0.15197230875492f,
    0.11569650471210f, 0.67806017398834f, 0.18049658834934f,
    0.15985877811909f, 0.56256812810898f, 0.04248066619039f,
    -0.05607469379902f, 0.08464632928371f, 0.74280047416687f,
    0.40062165260315f, -0.17795829474926f, -0.34360316395760f,
    -1.43682384490967f, -1.14221954345703f, -0.18952445685863f,
    0.11844997107983f, 0.00957719888538f, 0.03463027998805f,
    0.13445286452770f, -0.67639803886414f, 0.57566475868225f,
    0.02378605306149f, -0.05116518214345f, -0.08713100850582f,
    -0.13136099278927f, 0.94666230678558f, 0.02466723322868f,
    0.99220317602158f, 0.07230938225985f, 0.99238055944443f,
    -0.17674750089645f},
    {-0.07464019954205f, 0.05756205320358f, -0.07368464767933f,
    0.27525436878204f, -0.19850741326809f, -0.03020427562296f,
    0.17687205970287f, -0.66930127143860f, -0.66936224699020f,
    -0.35147404670715f, -0.05147330090404f, -0.29498243331909f,
    0.19149699807167f, -0.24428769946098f, 0.04610812664032f,
    0.50548756122589f, -0.02994962222874f, -1.32366907596588f,
    0.14960049092770f, 0.08149050921202f, 0.37661939859390f,
    0.39826998114586f, -2.75162935256958f, 0.31769981980324f,
    0.00542321754619f, -0.12302847951651f, 0.13908079266548f,
    -0.07917226850986f, -0.29138842225075f, 0.31647801399231f,
    -1.53168344497681f, 0.68255817890167f, 0.25870254635811f,
    -0.19064639508724f, 0.34637638926506f, -0.17738401889801f,
    -0.13715423643589f, 0.27221262454987f, -0.55661851167679f,
    0.05876887589693f, 0.47403976321220f, -0.39628949761391f,
    -0.49500522017479f, -0.11241282522678f, -0.28195449709892f,
    0.20812754333019f, -0.44697377085686f, -0.10300585627556f,
    -0.05032745748758f, 0.26517841219902f, -0.30428621172905f,
    -0.37175101041794f, -0.16846795380116f, -0.64123719930649f,
    -0.26166978478432f, 0.12727890908718f, -0.18211925029755f,
    -0.23736460506916f, 0.15993107855320f, 0.55784815549850f,
    0.37806636095047f, -1.07856404781342f, -0.00344879738986f,
    0.21027676761150f},
    {-2.38405370712280f, -0.80893987417221f, 0.94038224220276f,
    0.26954212784767f, -2.71844577789307f, -2.17854261398315f,
    0.03565697371960f, 0.45093151926994f, 0.45102438330650f,
    -0.48704257607460f, -0.68544310331345f, 1.24076247215271f,
    -0.47752746939659f, 0.04856332764030f, -0.24444013834000f,
    0.53629255294800f, -0.04246797040105f, -0.37753641605377f,
    0.41334524750710f, -0.08399455994368f, -2.05287456512451f,
    -0.88521718978882f, -3.92636799812317f, -1.35877919197083f,
    0.27432981133461f, -0.19294415414333f, -2.19312977790833f,
    1.10085570812225f, -0.37877333164215f, -0.06743163615465f,
    -2.30069613456726f, 0.24093334376812f, -0.01296009030193f,
    0.03595490753651f, 0.14533510804176f, -0.12956708669662f,
    0.00517745316029f, -2.50843191146851f, -1.43298637866974f,
    0.00157051638234f, 1.13147878646851f, 0.07019077986479f,
    -1.08893990516663f, -2.79554486274719f, 0.02332404814661f,
    -0.62985950708389f, 0.37014058232307f, -0.01640444807708f,
    0.08717396855354f, 0.00828092079610f, -2.18179702758789f,
    0.75440037250519f, 0.70275801420212f, -0.84040611982346f,
    0.06053057312965f, -0.39670833945274f, -0.27557110786438f,
    -0.05609476566315f, 0.30085000395775f, 0.57599866390228f,
    -0.46475654840469f, 0.08411245048046f, 0.20759266614914f,
    0.41537636518478f},
    {-0.08121290057898f, -0.11779205501080f, -0.25569048523903f,
    -0.23611190915108f, -0.55913966894150f, -0.26563373208046f,
    -0.01756639406085f, -0.06375835835934f, -0.15994085371494f,
    0.75583493709564f, 0.19897668063641f, -0.53051555156708f,
    -0.87385082244873f, -0.25525352358818f, 0.30330362915993f,
    0.34328269958496f, -0.06221058219671f, -1.28372073173523f,
    0.27477192878723f, 0.04078802466393f, -1.04866540431976f,
    0.11447418481112f, -1.59785139560699f, 0.05633876472712f,
    0.13092808425426f, -0.17706398665905f, 1.31770288944244f,
    -0.23027607798576f, -0.22531768679619f, 0.65368318557739f,
    0.83709478378296f, -0.70474869012833f, 0.31686750054359f,
    -0.18162907660007f, 1.32986950874329f, -0.02164894901216f,
    -0.18121735751629f, -0.63761514425278f, -4.39060068130493f,
    -0.25468415021896f, 0.24182784557343f, 0.43003344535828f,
    0.75607341527939f, -1.26210486888885f, -0.06049663946033f,
    -1.85197567939758f, -0.01587170921266f, 0.03359225019813f,
    -0.06415063142776f, -1.11287379264832f, -0.95308274030685f,
    0.06829369813204f, -0.04207619279623f, 0.93864065408707f,
    -0.10632562637329f, -0.17480364441872f, -2.76220226287842f,
    -0.15520134568214f, -0.10184526443481f, -0.41308864951134f,
    0.25143694877625f, -0.74141782522202f, 0.43019306659698f,
    0.51429569721222f},
    {0.02109327912331f, 0.00785689055920f, -0.11471720039845f,
    0.10171977430582f, 0.12505796551704f, -0.06702569872141f,
    0.09053953737020f, -0.05407056957483f, -0.18576447665691f,
    -0.06041980907321f, 0.15510465204716f, 0.10919213294983f,
    0.15551599860191f, 0.17148317396641f, 0.06415119767189f,
    0.10292546451092f, -0.06789588928223f, -0.16538092494011f,
    0.08238833397627f, 0.02720509469509f, 0.05888643488288f,
    -0.18365365266800f, -0.06621899455786f, -0.08396664261818f,
    -0.09646236151457f, -0.19006335735321f, 0.00072574679507f,
    0.15581446886063f, -0.17382672429085f, 0.14259414374828f,
    -0.06449144333601f, -0.03480574488640f, 0.16843761503696f,
    0.16618920862675f, -0.17651663720608f, -0.05436525493860f,
    -0.07249964773655f, 0.08962215483189f, -0.03590334951878f,
    0.00514523684978f, -0.09394543617964f, 0.05751553550363f,
    0.11623388528824f, 0.14039559662342f, 0.05804542452097f,
    -0.06867798417807f, -0.11065286397934f, -0.05591349303722f,
    -0.20739448070526f, 0.08156955242157f, 0.12876667082310f,
    -0.04959832131863f, -0.06214664131403f, -0.18429030478001f,
    -0.02112208306789f, 0.02039689198136f, 0.00170012703165f,
    -0.16934926807880f, -0.13984410464764f, 0.14936189353466f,
    -0.11432975530624f, -0.12473581731319f, -0.00746362144127f,
    0.14623625576496f},
    {0.12244465202093f, -0.53911149501801f, -0.41453820466995f,
    0.11965857446194f, 0.42541784048080f, -0.89237701892853f,
    -0.19286963343620f, -0.75467991828918f, -0.05981295555830f,
    0.20140647888184f, 0.44098043441772f, -1.08014285564423f,
    -0.35668459534645f, -0.13647748529911f, -0.14750778675079f,
    -1.13356292247772f, 0.00131087005138f, 0.63061356544495f,
    0.48788464069366f, -0.15283037722111f, -1.74549245834351f,
    -0.65777122974396f, -2.26678347587585f, -0.68934524059296f,
    0.18316200375557f, -0.24059474468231f, -0.60626715421677f,
    -0.58490204811096f, -0.75958830118179f, -0.60564637184143f,
    -0.03831857070327f, -0.03028040006757f, 0.12168075144291f,
    -0.06014676019549f, -0.23896181583405f, -0.18017277121544f,
    0.03827646747231f, 0.65987908840179f, 0.78775411844254f,
    0.09491664916277f, 0.73401683568954f, -0.16153481602669f,
    -0.15205018222332f, -0.26420703530312f, -0.74506700038910f,
    0.23005931079388f, 0.38890859484673f, -0.18008039891720f,
    -0.04150390625000f, 0.48231539130211f, 0.21453624963760f,
    -0.10767944902182f, -0.10052929073572f, -0.26390755176544f,
    -0.03301620855927f, -0.04791730269790f, -0.06700426340103f,
    0.11713928729296f, -0.49347677826881f, 0.23874591290951f,
    0.24831427633762f, 0.05483796074986f, 0.33346277475357f,
    0.05087425559759f},
    {-0.45516988635063f, 0.02206222340465f, 0.23907274007797f,
    0.28944352269173f, -0.58855879306793f, -0.99708318710327f,
    0.09267784655094f, -0.82991909980774f, 0.06090521067381f,
    -0.34135004878044f, 0.18325543403625f, -0.77897447347641f,
    -1.42232263088226f, -0.25454038381577f, 0.18817846477032f,
    -0.11776179820299f, -0.09054233133793f, -1.29146111011505f,
    0.19699165225029f, -0.16604833304882f, 0.38100683689117f,
    -0.49111837148666f, -0.94648510217667f, -2.02133369445801f,
    0.01722828298807f, -0.20297054946423f, -2.54538249969482f,
    -2.49239110946655f, -0.61381900310516f, 1.03052270412445f,
    -0.55149900913239f, 0.04923759400845f, -0.89111882448196f,
    -0.22536443173885f, -0.70276039838791f, -0.06557948887348f,
    -0.21516293287277f, -0.19031220674515f, -0.09640043228865f,
    -0.04666581377387f, -0.00052257807693f, 0.40502986311913f,
    -1.21411859989166f, 0.20953193306923f, -0.15074610710144f,
    0.11325183510780f, 0.08265466243029f, -0.14999721944332f,
    -0.21739180386066f, -1.62649977207184f, -1.54378807544708f,
    0.71821159124374f, -0.07227723300457f, -1.85868656635284f,
    -0.23787282407284f, -0.42128014564514f, -1.41561079025269f,
    0.06271237879992f, 0.24858078360558f, 0.11144328117371f,
    -0.33510705828667f, 0.59762102365494f, 0.29119426012039f,
    -0.38116544485092f},
    {-0.01848606206477f, 0.82340908050537f, -0.86546623706818f,
    0.17971864342690f, 0.63533288240433f, 0.08915235847235f,
    -0.06045973673463f, 0.03298330679536f, 0.10723425447941f,
    0.05107712000608f, -0.33080741763115f, 0.53501313924789f,
    -0.23478505015373f, 0.04892580211163f, 0.24148958921432f,
    0.03124065138400f, 0.12737792730331f, -0.64201837778091f,
    -0.31002521514893f, -0.24191607534885f, 0.00201515760273f,
    0.21594037115574f, -0.07207234948874f, -0.33997958898544f,
    -0.11154492944479f, -0.11262778192759f, -0.09224399924278f,
    -1.86885178089142f, -2.56696248054504f, -0.96792274713516f,
    0.72638064622879f, 0.31150552630424f, 0.18516694009304f,
    0.01119151897728f, -0.76896488666534f, 0.13339038193226f,
    0.04928190261126f, 0.09826498478651f, 0.17406336963177f,
    -0.21651989221573f, 0.48504701256752f, 0.58862268924713f,
    0.54648518562317f, -0.15107586979866f, -0.76285648345947f,
    0.29095080494881f, 0.03822319582105f, -0.09373212605715f,
    -0.03229359909892f, 0.62654739618301f, 0.23328900337219f,
    -0.71434968709946f, -0.44600510597229f, 0.40143465995789f,
    0.06596529483795f, 0.16700662672520f, 0.46744254231453f,
    -0.25671365857124f, 0.75086867809296f, -0.78255897760391f,
    -0.49948945641518f, -0.04919739067554f, -0.39708781242371f,
    0.50730186700821f},
    {-0.06325731426477f, 0.78307723999023f, 0.59257316589355f,
    -0.14237202703953f, 0.38490930199623f, -0.65697658061981f,
    -0.01066239736974f, -0.54447227716446f, -0.89455789327621f,
    0.24917565286160f, 0.27684938907623f, -1.75550770759583f,
    -0.36222979426384f, 0.00108318822458f, -4.99074172973633f,
    0.61935406923294f, -0.20706261694431f, 0.46409878134727f,
    -0.02527295239270f, -0.14331585168839f, -0.84810447692871f,
    -0.81442236900330f, -0.22447957098484f, -0.37567511200905f,
    -0.20763301849365f, -0.24124513566494f, 0.25467050075531f,
    0.32150262594223f, 0.68797689676285f, -1.14929735660553f,
    -0.49948647618294f, -0.11691039800644f, -0.87704044580460f,
    -0.05547353625298f, 0.36751741170883f, 0.07004767656326f,
    0.07755056768656f, -0.32982224225998f, -5.11737537384033f,
    0.10145539045334f, 0.44669896364212f, 0.28329616785049f,
    0.43934965133667f, 0.53941315412521f, -0.31039419770241f,
    0.26589688658714f, 0.03003424964845f, -0.02753087505698f,
    -0.21050505340099f, 0.58255803585052f, -1.19434487819672f,
    -2.79687976837158f, -1.49395656585693f, 0.53150147199631f,
    0.00832425896078f, 0.62343215942383f, 0.73955571651459f,
    -0.00004607714800f, 0.22394861280918f, 0.31461176276207f,
    0.60419017076492f, -0.27881580591202f, 0.11122653633356f,
    -1.21268618106842f},
    {-0.27854853868484f, 0.37977936863899f, 0.44260311126709f,
    0.09104697406292f, -2.63773345947266f, -0.08708264678717f,
    -0.22708572447300f, 0.70395785570145f, 0.03130440041423f,
    0.08437591046095f, 0.27079030871391f, -0.37388774752617f,
    0.13610184192657f, 0.05063657835126f, 0.00837718788534f,
    0.61629980802536f, -0.27820241451263f, -0.40941548347473f,
    0.06101525202394f, -0.03124196827412f, 0.01910523511469f,
    0.26379090547562f, -0.10494235903025f, -0.70231229066849f,
    0.10095142573118f, -0.26734083890915f, -0.12276383489370f,
    -1.41586995124817f, 0.10232721269131f, 0.02515338361263f,
    -0.22775720059872f, 0.23264740407467f, 0.74514281749725f,
    -0.23057760298252f, -0.13882923126221f, -0.00692180963233f,
    0.06082543358207f, 0.20253650844097f, -1.09771978855133f,
    0.01638460159302f, -0.66795045137405f, -0.18147863447666f,
    -0.72212922573090f, 0.21343387663364f, -0.05710586160421f,
    -0.01696912012994f, 0.42173662781715f, 0.09904298931360f,
    -0.12818093597889f, -0.47460150718689f, 0.38548359274864f,
    0.89300769567490f, 0.20234523713589f, 0.03352089598775f,
    -0.22467483580112f, -0.20299887657166f, -0.84875303506851f,
    -0.04012019559741f, -0.16115783154964f, -0.15959565341473f,
    0.50187259912491f, 0.25195047259331f, 0.42789423465729f,
    -0.47925925254822f},
    {-0.31399509310722f, -0.06984205543995f, -0.10802245140076f,
    -0.74508333206177f, -1.15127813816071f, -1.08186304569244f,
    -0.21650394797325f, -1.72517120838165f, 0.26981762051582f,
    0.71026366949081f, 0.17719645798206f, -0.63079452514648f,
    0.09362987428904f, -0.02170671895146f, -0.55878162384033f,
    -0.12614735960960f, -0.02015473321080f, 0.20870521664619f,
    -0.40867108106613f, -0.09183188527822f, -0.76656389236450f,
    -0.13899041712284f, -0.13239684700966f, -0.18835806846619f,
    0.14176675677299f, 0.06816857308149f, -1.70397937297821f,
    -0.30452382564545f, 0.08520014584064f, -1.05018055438995f,
    0.21017391979694f, -0.21531800925732f, 0.08404730260372f,
    -0.13519938290119f, 0.34505301713943f, 0.11843975633383f,
    -0.00496984366328f, -0.38131338357925f, -0.33574408292770f,
    -0.11067770421505f, 0.04939138889313f, 0.50091594457626f,
    0.36151161789894f, -0.03115884773433f, -0.10708204656839f,
    0.11615132540464f, -0.46841520071030f, -0.11891154199839f,
    -0.18957281112671f, -0.07871825993061f, -0.52747184038162f,
    0.40118888020515f, 0.11991140246391f, -0.32863280177116f,
    -0.05954117700458f, 0.53140926361084f, -0.12292796373367f,
    -0.18643906712532f, 0.58885514736176f, -0.09950024634600f,
    -0.38048934936523f, -0.06860549002886f, -0.04867998883128f,
    0.30753555893898f},
    {-0.99353295564651f, 0.48097631335258f, 0.32010644674301f,
    -0.36166128516197f, -0.29652452468872f, 0.28220623731613f,
    0.03881565481424f, -0.65558296442032f, -0.55646455287933f,
    0.58075940608978f, -0.27975055575371f, 0.40839052200317f,
    -0.31447327136993f, 0.05250181257725f, -1.81123912334442f,
    0.65224772691727f, -0.16649664938450f, -0.04292117059231f,
    -0.19998356699944f, -0.07749602198601f, -0.02769858762622f,
    0.12273062765598f, -0.06371080875397f, 0.37876003980637f,
    0.38335964083672f, 0.21240457892418f, -0.53112924098969f,
    -0.56514036655426f, -0.05886082723737f, 0.84789496660233f,
    0.02012850157917f, 0.17376278340816f, -0.58767217397690f,
    -0.00134673714638f, 0.57500272989273f, 0.16847215592861f,
    0.01320484280586f, -0.33660900592804f, 0.13457377254963f,
    -0.14471574127674f, -0.88255393505096f, -0.38269835710526f,
    -0.04534897580743f, 0.81946712732315f, -0.96290773153305f,
    0.14280124008656f, -0.34154751896858f, 0.01182898320258f,
    0.08563156425953f, 0.26662886142731f, -0.33173406124115f,
    -0.85602056980133f, -0.21377466619015f, 0.42574340105057f,
    0.03755711019039f, -0.32762774825096f, -0.71390885114670f,
    -0.22800487279892f, -0.64038592576981f, 1.27349948883057f,
    -0.24956901371479f, -0.03527684137225f, 0.10275259613991f,
    0.61173778772354f},
    {0.17286227643490f, 0.11343093961477f, -0.17875590920448f,
    -0.09844140708447f, -0.06919896602631f, -0.06794880330563f,
    0.01836706697941f, 0.11504805833101f, 0.00881857518107f,
    0.02542345598340f, -0.12761597335339f, 0.06222985684872f,
    -0.09136167168617f, 0.08644862473011f, -0.15477688610554f,
    0.08249409496784f, -0.11292099207640f, -0.14016613364220f,
    0.13596336543560f, -0.01576989889145f, 0.01338478922844f,
    0.03052017092705f, -0.00092047452927f, -0.10726234316826f,
    -0.05151317268610f, -0.03657530248165f, 0.00608475506306f,
    0.07722859084606f, 0.04292769730091f, 0.19972740113735f,
    -0.16166907548904f, -0.01675028540194f, 0.01601256430149f,
    0.10326083004475f, 0.16815547645092f, -0.11076620221138f,
    -0.03164474666119f, -0.13421539962292f, -0.01430004835129f,
    -0.10809966176748f, 0.17324712872505f, 0.12829099595547f,
    -0.15115275979042f, 0.00720007298514f, -0.15396571159363f,
    -0.04274298623204f, 0.15842834115028f, -0.08617340028286f,
    -0.04515698552132f, 0.09342311322689f, 0.09908612072468f,
    0.15483134984970f, -0.02228471450508f, -0.03447729349136f,
    0.08897481858730f, 0.16130025684834f, -0.09626019001007f,
    0.12308989465237f, -0.05671006068587f, 0.04785497486591f,
    0.01528902351856f, 0.02833214215934f, -0.09020803868771f,
    -0.11927451193333f},
    {0.17607019841671f, 0.11714182794094f, -0.11095708608627f,
    0.07518120110035f, -0.14923402667046f, -0.11023157835007f,
    0.16814948618412f, 0.06054947525263f, -0.20146912336349f,
    0.01604132354259f, -0.15192946791649f, 0.20789559185505f,
    -0.03903129324317f, 0.14786790311337f, 0.13813729584217f,
    0.22765456140041f, -0.16825309395790f, -0.05640406906605f,
    0.16265936195850f, 0.14973054826260f, 0.14982268214226f,
    0.13447134196758f, 0.15786753594875f, 0.04188611358404f,
    0.10330123454332f, 0.16324485838413f, -0.01216602046043f,
    0.09937180578709f, 0.08432523161173f, 0.03035844862461f,
    0.03350754082203f, 0.21672268211842f, 0.13578750193119f,
    0.06276865303516f, 0.20247735083103f, -0.18982364237309f,
    -0.16600605845451f, -0.18439970910549f, -0.07976539433002f,
    -0.15862369537354f, 0.11498261988163f, -0.04511295258999f,
    -0.15373764932156f, 0.15665423870087f, 0.16584552824497f,
    -0.02112419344485f, 0.00916993524879f, -0.12265940010548f,
    0.05707259476185f, 0.08139674365520f, -0.17069044709206f,
    -0.02734605967999f, -0.06253115832806f, 0.07500125467777f,
    0.04332362115383f, -0.14479972422123f, -0.06739367544651f,
    -0.20692718029022f, -0.04323749989271f, 0.07520727813244f,
    0.01470510289073f, -0.08913469314575f, 0.10302033275366f,
    0.02035059034824f},
    {0.63039398193359f, -0.06903459876776f, -0.47959983348846f,
    0.03936118260026f, 0.74575901031494f, 0.45550745725632f,
    0.13634552061558f, 0.02981737069786f, 0.86178064346313f,
    0.07072103023529f, -0.65261137485504f, -0.19627870619297f,
    0.08020099252462f, -0.15993657708168f, 0.63209944963455f,
    -0.18098936975002f, -0.18945561349392f, -0.25293540954590f,
    0.40216940641403f, -0.00841774046421f, -0.73910701274872f,
    -0.21658343076706f, -0.67793345451355f, 0.48970460891724f,
    -0.05721304938197f, 0.03267841041088f, 0.29652374982834f,
    -1.30993485450745f, -0.52496618032455f, -4.85483455657959f,
    0.27686318755150f, -0.07310203462839f, -1.12827241420746f,
    -0.12087474763393f, -0.48339137434959f, -0.06733004748821f,
    -0.08813866972923f, -0.13243485987186f, 0.76295673847198f,
    -0.09200625866652f, -0.14394815266132f, -0.65347629785538f,
    -0.19380693137646f, 0.24995566904545f, 0.61340349912643f,
    -0.19391663372517f, 0.28695005178452f, -0.06507716327906f,
    -0.06707420945168f, -0.00899499095976f, -0.11215998977423f,
    -0.32396188378334f, -0.22272002696991f, 0.62682527303696f,
    0.05542179197073f, -0.03979163244367f, -0.97277981042862f,
    -0.17852091789246f, 0.00798381678760f, -0.12223748117685f,
    0.28376293182373f, 0.32815179228783f, -0.24416959285736f,
    0.00487435283139f},
    {0.21690495312214f, 0.02278468012810f, -0.05336313694715f,
    -0.18585588037968f, 0.13806425035000f, -0.21244892477989f,
    0.07650385797024f, 0.10904996097088f, -0.19930990040302f,
    0.16007855534554f, 0.14959849417210f, -0.02921767532825f,
    0.05247288569808f, 0.13975493609905f, 0.20880497992039f,
    -0.16740757226944f, 0.11232988536358f, 0.00279217958450f,
    0.03151952847838f, -0.11002412438393f, -0.15529580414295f,
    -0.20290666818619f, 0.00325319170952f, 0.02927899360657f,
    0.16497553884983f, 0.04170738160610f, -0.03754641115665f,
    -0.22599460184574f, -0.00968524813652f, 0.17437537014484f,
    -0.04448144137859f, -0.10831899940968f, -0.08437315374613f,
    -0.03425806760788f, -0.15242205560207f, -0.03331148624420f,
    0.00355160236359f, 0.17009027302265f, 0.04458810389042f,
    -0.03374637663364f, -0.18412919342518f, 0.12524911761284f,
    -0.20445477962494f, 0.16689017415047f, 0.08884899318218f,
    0.10386743396521f, 0.18413971364498f, -0.04885002970695f,
    0.05236937105656f, -0.17393465340137f, -0.02876491844654f,
    0.14331267774105f, -0.11756850779057f, -0.15510776638985f,
    0.01993112266064f, 0.10040732473135f, -0.15973974764347f,
    -0.09682702273130f, -0.14116384088993f, -0.01456683967263f,
    0.15855966508389f, -0.01227824017406f, -0.24435684084892f,
    0.12972842156887f},
    {0.15025122463703f, 0.11892064660788f, 0.85165321826935f,
    0.27275368571281f, -0.69664591550827f, -1.55266654491425f,
    0.07005338370800f, -0.84826874732971f, -0.36249181628227f,
    0.33014532923698f, 0.35020110011101f, -0.87134367227554f,
    -0.39695486426353f, -0.30017983913422f, -0.06922627240419f,
    0.56959372758865f, -0.09658092260361f, -0.00381718389690f,
    0.56230926513672f, -0.10766602307558f, -0.86226522922516f,
    -0.94729489088058f, -2.36011886596680f, 0.29267776012421f,
    -0.31836318969727f, -0.02460130304098f, -0.54014956951141f,
    0.33432015776634f, -0.20009043812752f, 0.11165392398834f,
    -0.39461621642113f, 0.22798329591751f, 0.03620852157474f,
    -0.15769150853157f, -0.35130390524864f, 0.06727014482021f,
    -0.01755546033382f, -0.01267386879772f, -0.13110429048538f,
    -0.03891179710627f, -0.08250320702791f, -0.22193966805935f,
    -0.65773224830627f, -0.09881165623665f, -0.03714540973306f,
    0.11219320446253f, -0.22829017043114f, -0.18296855688095f,
    -0.26070728898048f, 0.60806578397751f, 0.45997864007950f,
    0.28012093901634f, 0.31588199734688f, -0.06689931452274f,
    0.03978313133121f, -0.01732256822288f, -0.37470495700836f,
    -0.13469056785107f, 0.07931534200907f, -0.27523407340050f,
    0.09068187326193f, -0.19996406137943f, 0.00537719810382f,
    -0.11465964466333f},
    {0.15974482893944f, -0.51642280817032f, -0.26841497421265f,
    -1.12493884563446f, -0.44174465537071f, -0.81933915615082f,
    -0.13011047244072f, -0.29665195941925f, -0.74435144662857f,
    0.29020610451698f, -0.74194681644440f, 0.36199513077736f,
    0.11575594544411f, -0.07325555384159f, -5.06832170486450f,
    0.33328843116760f, 0.03921470046043f, 0.22482623159885f,
    0.03715863823891f, -0.01557641196996f, -0.15499047935009f,
    -0.09764984250069f, -2.61208772659302f, -0.34763252735138f,
    -0.05802929773927f, 0.12073751538992f, -0.27455121278763f,
    0.54153221845627f, -0.55099755525589f, -0.15360423922539f,
    0.19214285910130f, -0.60802847146988f, -1.09035754203796f,
    -0.01182010769844f, -0.24528077244759f, 0.07051624357700f,
    0.02960945293307f, -0.12791220843792f, -1.36404860019684f,
    0.02123921364546f, 0.14288730919361f, 0.09738811105490f,
    0.30621260404587f, -0.95869177579880f, 0.35709062218666f,
    0.13581103086472f, -0.85180783271790f, -0.26931211352348f,
    0.12293364852667f, -0.04557850956917f, -0.35124474763870f,
    -0.58569908142090f, -0.24544180929661f, 0.57461136579514f,
    0.04942479357123f, -0.22584390640259f, 0.02690911479294f,
    0.08914358168840f, 0.23501393198967f, -1.29613983631134f,
    -0.12505103647709f, -0.33500215411186f, 0.18189121782780f,
    -0.72550624608994f},
    {-0.20070397853851f, 0.06465338170528f, 0.12147654592991f,
    0.01807180047035f, -0.19311416149139f, -0.20309007167816f,
    0.00847798585892f, 0.12310235202312f, 0.21091015636921f,
    0.08453549444675f, -0.09035754203796f, -0.15173496305943f,
    -0.02184465527534f, -0.16726143658161f, 0.18706060945988f,
    0.21273891627789f, 0.18089868128300f, -0.03027601540089f,
    0.08529303967953f, 0.21325246989727f, 0.07040463387966f,
    -0.01171264052391f, 0.20873011648655f, 0.09204588830471f,
    0.19524401426315f, 0.20450086891651f, 0.04786591231823f,
    -0.16871528327465f, 0.12712351977825f, 0.10352648794651f,
    -0.05638942122459f, 0.04104216024280f, 0.12673757970333f,
    -0.07127121090889f, 0.15154014527798f, -0.10717118531466f,
    -0.09265304356813f, -0.09131130576134f, 0.14454726874828f,
    -0.13815325498581f, -0.20640778541565f, 0.01874843239784f,
    -0.08862122893333f, -0.18848583102226f, 0.12665151059628f,
    -0.09167522192001f, -0.08147229254246f, -0.07102854549885f,
    -0.09466040879488f, -0.00875429809093f, 0.03418646752834f,
    -0.12299709767103f, -0.14539401233196f, 0.18740977346897f,
    -0.18396662175655f, -0.13620436191559f, 0.20615966618061f,
    -0.15866173803806f, -0.18330247700214f, 0.01804175972939f,
    -0.13288976252079f, 0.10224939882755f, 0.09664583951235f,
    -0.21480363607407f},
    {0.18836557865143f, 0.53246963024139f, 0.10054843872786f,
    1.09630632400513f, 0.52118498086929f, 0.02003474906087f,
    0.11728808283806f, 0.05382303521037f, 0.75170916318893f,
    0.23765760660172f, 0.12200580537319f, 0.32668685913086f,
    0.16046570241451f, -0.01615703850985f, -0.08227017521858f,
    0.71334177255630f, -0.05300521850586f, -0.84622287750244f,
    0.01957006379962f, 0.06258194148540f, -0.08593033999205f,
    0.33198183774948f, -1.63663613796234f, 0.13018344342709f,
    0.24287520349026f, -0.20761334896088f, 0.25471585988998f,
    -1.83168792724609f, 1.13969969749451f, 0.28661730885506f,
    -0.69445413351059f, -0.02564521506429f, 0.42603808641434f,
    0.07070902734995f, 0.13291101157665f, 0.12375634163618f,
    0.17766226828098f, -0.32777047157288f, -1.53335046768188f,
    -0.12994819879532f, 0.35005155205727f, -0.46003711223602f,
    -1.34054744243622f, -0.02265541814268f, 0.38926532864571f,
    0.62797695398331f, 0.52821761369705f, 0.18235686421394f,
    -0.16432450711727f, 0.18347744643688f, 0.25649258494377f,
    0.43684726953506f, -0.01836726814508f, -0.32770922780037f,
    -0.11925150454044f, 0.31283092498779f, 0.11694987863302f,
    -0.05032454803586f, -0.23508854210377f, 0.05678550153971f,
    0.49502134323120f, 0.01599723473191f, 0.25236985087395f,
    -0.02988897822797f},
    {0.00052888691425f, -0.05002737417817f, 0.19878464937210f,
    -0.04548051208258f, 0.05620006844401f, -0.06392145156860f,
    0.03302165493369f, -0.00661272788420f, -0.07577085494995f,
    -0.25995203852654f, 0.22002220153809f, -0.25217187404633f,
    0.16606305539608f, 0.13172908127308f, -0.02362803183496f,
    -0.11478561162949f, -0.15201516449451f, 0.16777670383453f,
    0.26655870676041f, 0.01647022366524f, 0.19953994452953f,
    -0.14788621664047f, 0.01101419050246f, -0.14447273313999f,
    -0.10238826274872f, 0.14850960671902f, -0.07543564587831f,
    0.10979377478361f, 0.10933773219585f, 0.07340372353792f,
    0.18808630108833f, 0.24050806462765f, -0.05179128050804f,
    -0.00677201151848f, 0.20496091246605f, 0.17698065936565f,
    -0.00084629654884f, -0.07145614176989f, -0.00985844433308f,
    0.20252108573914f, 0.03230481594801f, 0.14316144585609f,
    0.01660589314997f, 0.18432292342186f, 0.20402038097382f,
    -0.02578948810697f, -0.18270751833916f, 0.10899080336094f,
    -0.10873539745808f, 0.22935807704926f, -0.10394784063101f,
    0.11409272253513f, -0.04239324480295f, -0.13596801459789f,
    -0.12385970354080f, 0.06649839878082f, -0.11565122008324f,
    0.05547027289867f, -0.08044491708279f, 0.03362476080656f,
    -0.26131275296211f, -0.03380861505866f, -0.08760800212622f,
    -0.04712627083063f},
    {-0.50316357612610f, 0.00496176118031f, 0.75714242458344f,
    -0.51126080751419f, -0.21110239624977f, 0.13226757943630f,
    -0.07150384038687f, -0.06786294281483f, -0.48163422942162f,
    0.20160911977291f, -0.47348317503929f, -1.12017118930817f,
    0.35890367627144f, -0.04746585339308f, -0.25212746858597f,
    -0.56537204980850f, 0.01718742400408f, 0.35474088788033f,
    -0.15623465180397f, -0.09134808182716f, 0.04266193136573f,
    -0.12408121675253f, -0.12707142531872f, -0.34496426582336f,
    0.20044617354870f, 0.04302576929331f, -0.18247865140438f,
    -0.17389112710953f, 0.00254459632561f, -1.66186130046844f,
    -3.13268852233887f, -0.53277254104614f, -0.50641316175461f,
    0.00028535825550f, 0.12159272283316f, -0.07004386931658f,
    -0.23643763363361f, -0.07583921402693f, -1.98775112628937f,
    0.06182869151235f, -0.57980000972748f, -0.19845691323280f,
    0.30158942937851f, -0.37510669231415f, 0.06282529979944f,
    -0.05697756633162f, 0.63878977298737f, -0.15637733042240f,
    0.01377623341978f, 0.21178768575191f, -1.29531562328339f,
    0.28351452946663f, 0.19792774319649f, -0.16708578169346f,
    -0.29039540886879f, 0.01253288518637f, 0.34395438432693f,
    -0.22786742448807f, 0.00803164578974f, -0.74171030521393f,
    -0.09520570933819f, 0.27059578895569f, 0.03569681197405f,
    -1.12268567085266f},
    {0.31190779805183f, -0.22852835059166f, -0.41370150446892f,
    -0.07042305916548f, -0.15424372255802f, -0.07849865406752f,
    0.12327364832163f, 0.51695138216019f, 0.01660687848926f,
    0.21549004316330f, -1.33984506130219f, -3.84019589424133f,
    -0.04092700779438f, -0.02943828701973f, 1.75199389457703f,
    -0.57901448011398f, 0.01189890131354f, -1.14109611511230f,
    0.12321285158396f, 0.06265758723021f, -0.66867160797119f,
    0.27293506264687f, -0.78013563156128f, 0.41784709692001f,
    -0.54273271560669f, -0.23101425170898f, -0.24529069662094f,
    -0.02034487761557f, -1.00881123542786f, 0.12443041056395f,
    -0.60912477970123f, 0.06711875647306f, -0.05718895047903f,
    -0.17395907640457f, 0.78065514564514f, 0.01772335916758f,
    0.16742292046547f, -0.30550462007523f, -0.46370065212250f,
    -0.09643968939781f, -0.97767639160156f, 0.41060233116150f,
    0.14038416743279f, -0.57202327251434f, 0.36680388450623f,
    0.04003624245524f, 0.21791823208332f, 0.14769625663757f,
    -0.09992349892855f, 0.11324866116047f, 0.27237951755524f,
    0.21404744684696f, 0.71629458665848f, -0.72853070497513f,
    -0.07968038320541f, -0.47907441854477f, 0.13030835986137f,
    0.06038716435432f, 0.10764249414206f, -1.11024606227875f,
    -0.08687052130699f, 0.05652798339725f, 0.00660171452910f,
    -1.24510204792023f},
    {-0.06772214174271f, -0.18914102017879f, -0.14461469650269f,
    -0.13645765185356f, 0.13158132135868f, -0.00503890216351f,
    -0.01974824070930f, 0.11896242201328f, 0.13810066878796f,
    -0.05859969928861f, -0.02767283283174f, 0.17561598122120f,
    -0.26643347740173f, -0.21412211656570f, -0.12125541269779f,
    -0.09780906885862f, -0.21334941685200f, -0.24114148318768f,
    0.04949168115854f, -0.06528334319592f, 0.10404429584742f,
    0.08435494452715f, 0.15499471127987f, 0.02284703776240f,
    0.01399187371135f, -0.18460944294930f, -0.07216563820839f,
    -0.01646232604980f, 0.15925736725330f, -0.04360072314739f,
    -0.17758020758629f, -0.09075225889683f, 0.08056209981441f,
    0.01769246160984f, 0.10437548160553f, 0.14894215762615f,
    0.21167452633381f, -0.23298680782318f, -0.00414553284645f,
    0.12844075262547f, -0.11027642339468f, 0.19296917319298f,
    0.22412267327309f, 0.19354692101479f, -0.13567161560059f,
    -0.16659466922283f, 0.11006134748459f, -0.07015334069729f,
    0.14220024645329f, -0.16977253556252f, 0.13448168337345f,
    -0.00683473190293f, 0.16291025280952f, -0.04092528298497f,
    -0.05348356068134f, 0.11715146154165f, -0.07850015163422f,
    0.05419997870922f, -0.07373497635126f, 0.15254446864128f,
    -0.14934471249580f, 0.05832668021321f, 0.09795348346233f,
    0.12589502334595f},
    {-0.80335521697998f, 0.41993683576584f, -0.13525895774364f,
    -1.19483411312103f, 0.46384319663048f, 0.12316936999559f,
    -0.19195720553398f, -0.21979230642319f, 0.21382911503315f,
    -0.07684076577425f, 0.20869238674641f, 0.68021565675735f,
    0.15268103778362f, 0.10677932202816f, 0.18140043318272f,
    -0.14876666665077f, -0.19256137311459f, 0.14396007359028f,
    0.51654654741287f, -0.04860254004598f, 0.60013729333878f,
    0.31726431846619f, -1.79636895656586f, 0.63779091835022f,
    -0.26086053252220f, -0.03312385082245f, 0.18553891777992f,
    0.22527119517326f, 0.13573963940144f, -0.58899968862534f,
    -2.25273823738098f, 0.92816525697708f, -0.51588159799576f,
    -0.25015741586685f, -1.01382815837860f, 0.01923338323832f,
    0.03398175537586f, -0.22344382107258f, -0.82680606842041f,
    0.13613554835320f, 0.05124110728502f, 0.32575455307961f,
    -0.35479229688644f, 0.06829639524221f, -0.65151834487915f,
    0.35500696301460f, 0.03381587564945f, -0.13715146481991f,
    0.00246465322562f, -0.07875935733318f, -1.46826779842377f,
    0.05064770579338f, 0.14093042910099f, -0.01305388938636f,
    0.03886488452554f, 0.51180946826935f, -0.29439508914948f,
    0.17546401917934f, -0.39461758732796f, 0.34659174084663f,
    -0.10531167685986f, 0.52807396650314f, -0.01719774864614f,
    -0.21293787658215f},
    {0.29954814910889f, 0.38418796658516f, -0.10022152960300f,
    0.17567569017410f, -0.31181314587593f, -0.69454079866409f,
    0.04940132796764f, -1.58035743236542f, -1.82443928718567f,
    0.10596707463264f, 0.45705208182335f, -2.79155135154724f,
    -0.02581059746444f, 0.03571451455355f, -0.65884321928024f,
    0.43773293495178f, -0.05848359689116f, -0.58733797073364f,
    -0.30738401412964f, -0.16020531952381f, 0.05043716356158f,
    -1.31845331192017f, -0.34065002202988f, -1.13792061805725f,
    0.26238265633583f, -0.01015686150640f, 0.77960008382797f,
    0.20495021343231f, 0.13995970785618f, -0.09934774786234f,
    -1.09211075305939f, 0.04592286422849f, 0.26737004518509f,
    0.04054637253284f, 0.14049810171127f, 0.04404278844595f,
    -0.09855161607265f, 0.22086754441261f, -0.22539819777012f,
    -0.01598388701677f, -0.55656963586807f, -0.75801277160645f,
    -0.08441314101219f, -0.45487615466118f, -0.04984118789434f,
    -0.25105473399162f, -0.74755394458771f, -0.12392983585596f,
    -0.17393511533737f, -0.43395465612411f, -0.51425725221634f,
    -0.04747697710991f, -0.32987388968468f, -0.14227771759033f,
    -0.18189041316509f, -0.01858877763152f, 0.62805598974228f,
    0.03176148608327f, -0.35186114907265f, 0.20535042881966f,
    -0.53382337093353f, 0.45622748136520f, 0.06628040224314f,
    0.08304474502802f},
    {-0.87101125717163f, 0.05494455993176f, -0.06374136358500f,
    -0.08675856143236f, -0.99516236782074f, -0.37405940890312f,
    -0.00961706228554f, -0.99730837345123f, -0.03001561015844f,
    -0.10435660928488f, 0.33483716845512f, -0.31646239757538f,
    -0.13293209671974f, -0.06968364864588f, 0.10557346045971f,
    0.24346597492695f, -0.15093202888966f, -0.86321008205414f,
    -0.04206699505448f, 0.00829480029643f, -0.59707164764404f,
    -0.49428659677505f, -0.37357425689697f, -0.32062780857086f,
    -0.26534870266914f, -0.19472730159760f, 0.14501109719276f,
    -0.40714570879936f, -1.02703630924225f, -0.24383480846882f,
    0.08330962061882f, 0.22847330570221f, -0.81997048854828f,
    -0.26882427930832f, -0.38396614789963f, -0.05755947530270f,
    -0.20700271427631f, -0.01839608326554f, -0.10109910368919f,
    -0.05247091129422f, 0.05034988746047f, -3.32612705230713f,
    -0.55141305923462f, -0.06817143410444f, -0.13954898715019f,
    0.00357440439984f, -0.52817118167877f, -0.14409849047661f,
    0.00234266370535f, 0.19338034093380f, 0.18234017491341f,
    -0.09556666016579f, 0.52348345518112f, -3.08094811439514f,
    -0.04945864900947f, 0.20067189633846f, 0.51893872022629f,
    -0.12931504845619f, -0.11970853060484f, 0.27895855903625f,
    -0.88196146488190f, 0.31888842582703f, -0.40130934119225f,
    0.07304669171572f},
    {-0.06577023863792f, 0.23996840417385f, -0.04876689612865f,
    0.37035796046257f, -0.47317263484001f, 0.62628847360611f,
    -0.07001148164272f, 0.66675895452499f, 0.34566026926041f,
    0.15919449925423f, -0.38037696480751f, -0.12233619391918f,
    -0.23818536102772f, -0.02915821783245f, 0.67268055677414f,
    -1.39077687263489f, 0.07564768195152f, 0.24969504773617f,
    -0.06042393296957f, 0.07931175827980f, -0.29873228073120f,
    -0.01624729856849f, 0.51220035552979f, -0.86512988805771f,
    -0.22061087191105f, 0.11330445855856f, 0.11398771405220f,
    0.02056033536792f, -0.07358793169260f, -0.13239994645119f,
    0.01575621776283f, 0.31904110312462f, -0.60052627325058f,
    -0.05372765660286f, -0.38108488917351f, 0.05610927566886f,
    -0.21399459242821f, 0.17570093274117f, -0.36420297622681f,
    -0.28664225339890f, 1.38073730468750f, -0.04466471448541f,
    -0.62865173816681f, -0.29942828416824f, -0.05766335129738f,
    0.24933621287346f, 0.79814356565475f, 0.11234293878078f,
    0.04292807355523f, 0.16482622921467f, 0.62530255317688f,
    0.46076393127441f, 0.10204187780619f, -0.36247184872627f,
    -0.04405007138848f, 0.29745483398438f, 0.51751667261124f,
    -0.21912927925587f, -0.43669810891151f, -0.42102372646332f,
    -0.06074580922723f, 0.77559828758240f, -0.08642122894526f,
    0.38767763972282f},
    {-0.16350245475769f, -2.33826947212219f, -0.77980870008469f,
    -0.11607883125544f, 0.32872271537781f, 0.70221048593521f,
    -0.00854279845953f, 0.16397351026535f, 0.42212778329849f,
    -0.56022834777832f, -0.03268568217754f, 0.56600302457809f,
    -0.25500971078873f, -0.19316434860229f, -0.13323305547237f,
    -0.54389041662216f, 0.04589927196503f, 0.01223735045642f,
    -0.00787067133933f, -0.08659990876913f, -0.50499033927917f,
    -0.09600948542356f, 0.31215554475784f, -0.92997592687607f,
    0.05508064106107f, -0.04338735342026f, 0.66300261020660f,
    0.21022699773312f, -0.22625611722469f, 0.49915075302124f,
    0.61978340148926f, -0.12448181211948f, 0.02244738116860f,
    -0.01803487539291f, -0.50537234544754f, -0.23873227834702f,
    0.00755310617387f, -0.70937365293503f, 0.30518639087677f,
    0.04918000102043f, 0.20422308146954f, 0.73979490995407f,
    0.08728858828545f, 0.38449782133102f, -0.73981088399887f,
    -0.52686977386475f, 0.12645860016346f, -0.19398012757301f,
    -0.19487921893597f, -0.54154807329178f, 0.55995303392410f,
    -1.02069485187531f, -0.96053373813629f, 0.26444074511528f,
    -0.15584740042686f, 0.08214315772057f, -0.13665784895420f,
    -0.09332156926394f, 0.21768322587013f, -0.59486913681030f,
    0.30157265067101f, -0.31052526831627f, 0.22022001445293f,
    -1.09247839450836f},
    {0.01186889410019f, -0.20614081621170f, -0.13486999273300f,
    0.08382715284824f, 0.03982101380825f, 0.04396803677082f,
    0.16442526876926f, 0.09408567845821f, 0.18989889323711f,
    -0.04706808924675f, 0.17682699859142f, -0.06059265136719f,
    -0.16790993511677f, -0.01501192152500f, -0.11113516986370f,
    -0.13231351971626f, -0.07399252057076f, -0.12432635575533f,
    -0.07727358490229f, -0.12740734219551f, 0.07530412077904f,
    -0.13883896172047f, -0.11747885495424f, -0.20753958821297f,
    0.14988604187965f, 0.14028166234493f, -0.11264567822218f,
    0.02190846949816f, -0.09394249320030f, -0.16683158278465f,
    -0.17581556737423f, 0.08670812845230f, 0.05825467407703f,
    0.08825530111790f, -0.04359871149063f, -0.10084412246943f,
    -0.04411639273167f, -0.05030356720090f, -0.08384242653847f,
    -0.04556570947170f, 0.20685867965221f, -0.09134769439697f,
    -0.00554289110005f, -0.10266083478928f, 0.01225805748254f,
    -0.01807777397335f, -0.05228763073683f, -0.12250232696533f,
    -0.03121718764305f, -0.03958116099238f, 0.07274045050144f,
    0.07900775223970f, -0.08855437487364f, 0.17931841313839f,
    0.05173356831074f, -0.10974021255970f, -0.06152502819896f,
    0.14900432527065f, 0.15509782731533f, 0.10422433912754f,
    0.05877136066556f, -0.11315135657787f, 0.00476683629677f,
    0.04675202071667f},
    {0.18621118366718f, -0.10428877174854f, 0.12725950777531f,
    -0.09217076748610f, 0.07973040640354f, 0.19656158983707f,
    0.13937212526798f, 0.01976265013218f, -0.06495839357376f,
    0.05424283444881f, -0.19332249462605f, -0.08189401030540f,
    -0.10302533954382f, 0.05956207215786f, -0.00151656568050f,
    -0.13904440402985f, 0.12343357503414f, 0.07159714400768f,
    -0.00749856233597f, 0.19807030260563f, -0.13375250995159f,
    -0.20926237106323f, -0.07219049334526f, 0.10571561753750f,
    -0.14296384155750f, -0.04808796942234f, -0.06086345016956f,
    -0.03393571078777f, 0.00787289440632f, -0.21260997653008f,
    0.14907978475094f, -0.20529946684837f, 0.10241635143757f,
    0.11185501515865f, 0.03691454231739f, -0.11029481142759f,
    0.15637896955013f, -0.11650785058737f, 0.02509288489819f,
    -0.09545833617449f, -0.13498157262802f, 0.01189057528973f,
    -0.16698516905308f, 0.21579189598560f, -0.01312839984894f,
    0.19119800627232f, -0.20579625666142f, 0.16176290810108f,
    -0.13526365160942f, -0.01452748477459f, -0.14206515252590f,
    -0.09095482528210f, -0.06132188439369f, 0.20517899096012f,
    0.08501233160496f, 0.05079586803913f, 0.12730599939823f,
    -0.07894827425480f, 0.10252813994884f, -0.13049131631851f,
    0.18076707422733f, -0.02254997193813f, 0.18368469178677f,
    -0.09627572447062f},
    {0.09878911077976f, 0.06663770973682f, -0.16886498034000f,
    0.06892471015453f, 0.19770480692387f, 0.12041617929935f,
    0.07318447530270f, -0.05216443538666f, 0.18603055179119f,
    0.08870573341846f, -0.01558175683022f, 0.19976498186588f,
    0.15418811142445f, -0.09114541113377f, -0.02902771532536f,
    0.01233361661434f, -0.11306443810463f, -0.15180340409279f,
    0.12567596137524f, 0.08885048329830f, -0.04139338433743f,
    0.01692591607571f, 0.06613041460514f, -0.17574550211430f,
    0.04396407306194f, -0.13336443901062f, 0.18848426640034f,
    0.11368139088154f, -0.07708539068699f, -0.03764578700066f,
    -0.00335127115250f, -0.09675268828869f, 0.16102357208729f,
    0.06974349915981f, -0.15742003917694f, 0.14034570753574f,
    -0.16952663660049f, 0.10403810441494f, 0.07799564301968f,
    0.20578227937222f, -0.05801407992840f, 0.17941345274448f,
    -0.11175961047411f, -0.04939647018909f, 0.08734865486622f,
    -0.02995277941227f, -0.13316312432289f, -0.00662273168564f,
    -0.16086742281914f, -0.10378832370043f, 0.08641274273396f,
    0.02310983836651f, -0.06976775825024f, -0.19120083749294f,
    0.05242966115475f, -0.19338138401508f, 0.03850342333317f,
    0.01433075964451f, -0.19372496008873f, -0.12063216418028f,
    0.16365872323513f, 0.17794792354107f, 0.02470140159130f,
    0.17757616937160f},
    {-0.22843593358994f, -0.08928480744362f, 0.47002175450325f,
    0.75673371553421f, -0.23265120387077f, 0.35075378417969f,
    0.02022251673043f, 0.90175443887711f, 0.06642607599497f,
    0.32646593451500f, 0.27529662847519f, -0.04977602139115f,
    -0.12159926444292f, -0.09140153229237f, 0.25498327612877f,
    -0.41319811344147f, -0.07173512130976f, 0.00147268548608f,
    -0.13827677071095f, 0.04978085681796f, -0.13760572671890f,
    0.30644002556801f, -0.03022755868733f, -0.12350993603468f,
    -0.11470594257116f, 0.08310808241367f, -0.71079981327057f,
    0.07183493673801f, -0.00098577572498f, 0.22012877464294f,
    0.19002750515938f, -0.47523793578148f, -0.36077156662941f,
    -0.01253009960055f, 0.13963815569878f, -0.21270249783993f,
    -0.23228631913662f, -0.19482938945293f, -0.18961836397648f,
    -0.24678073823452f, 0.70671021938324f, -0.59507197141647f,
    -0.19766247272491f, 0.73172843456268f, 0.29168474674225f,
    0.56398212909698f, 0.66911441087723f, -0.24052815139294f,
    -0.14628678560257f, -0.49035504460335f, 0.07220730930567f,
    -0.41623270511627f, -0.42258483171463f, 0.44053611159325f,
    -0.02157060615718f, -0.41956722736359f, -0.06413130462170f,
    -0.16266608238220f, -0.04711833968759f, -0.55326014757156f,
    0.29358264803886f, 0.26460728049278f, 0.03880508244038f,
    -0.68266987800598f},
    {-0.19787311553955f, -4.58946990966797f, -0.37089371681213f,
    -0.21953730285168f, 0.07974974811077f, -1.23108029365540f,
    -0.23708793520927f, -0.00380398216657f, -1.59804284572601f,
    -0.15100768208504f, 0.42430770397186f, -1.64780700206757f,
    -2.02789902687073f, 0.15873417258263f, 0.31858441233635f,
    0.16185382008553f, -0.21764256060123f, -1.01993119716644f,
    0.26479843258858f, -0.20398682355881f, -1.33094143867493f,
    -5.37258291244507f, -0.74926805496216f, -2.71111297607422f,
    -0.26861089468002f, 0.08415931463242f, 0.03022240288556f,
    0.13503670692444f, -0.26783111691475f, -0.37692058086395f,
    -0.42190259695053f, -0.44475761055946f, 0.49563530087471f,
    -0.16065156459808f, -0.63985854387283f, -0.20642364025116f,
    0.14945019781590f, 0.15768730640411f, -0.29126352071762f,
    -0.18022082746029f, 0.59374928474426f, 0.61285239458084f,
    -4.71595096588135f, -0.90114420652390f, 0.24773597717285f,
    -0.63536077737808f, 0.23886294662952f, -0.16634812951088f,
    0.08684660494328f, 0.59082239866257f, 0.61508798599243f,
    -0.29637524485588f, 0.12337968498468f, -1.78968250751495f,
    0.12245635688305f, 0.43994891643524f, -5.13740396499634f,
    -0.02778137475252f, -0.33459013700485f, -0.51307100057602f,
    -0.35413137078285f, 0.08034617453814f, -0.23323406279087f,
    -0.07468575984240f},
    {0.50709313154221f, -0.78157699108124f, 0.51585495471954f,
    -1.82218873500824f, 1.12411332130432f, -0.22356110811234f,
    0.03413044288754f, -0.50764662027359f, 0.09708443284035f,
    -1.16005420684814f, -0.44879269599915f, -0.00000052764142f,
    0.02972620539367f, -0.16070194542408f, -0.10907155275345f,
    -1.19925892353058f, -0.19960716366768f, -0.92560195922852f,
    0.17304818332195f, -0.12518770992756f, -0.31203755736351f,
    -0.15567100048065f, -2.72846770286560f, 0.04435608163476f,
    -0.42404586076736f, 0.04648716747761f, -0.48860937356949f,
    -0.05845162644982f, -2.32285690307617f, -2.41583919525146f,
    0.03336444124579f, 0.18139511346817f, -0.20741957426071f,
    0.08678786456585f, -1.30962967872620f, -0.10932468622923f,
    0.02968113496900f, -0.00314563023858f, 0.30925717949867f,
    -0.08302352577448f, -1.45719575881958f, -0.84355115890503f,
    -0.10025121271610f, -0.47746354341507f, 0.37627801299095f,
    0.44580385088921f, 0.54579091072083f, 0.12866234779358f,
    -0.14491648972034f, -0.54653334617615f, -0.55872607231140f,
    -0.10002456605434f, 0.41178226470947f, -0.84975701570511f,
    0.07743009179831f, -0.16052584350109f, -0.16040772199631f,
    -0.12121795117855f, 0.12739822268486f, 0.26435014605522f,
    0.57196134328842f, -0.55818158388138f, 0.04627533257008f,
    0.06897097826004f},
    {-0.09014208614826f, 0.13944511115551f, -0.11715430021286f,
    0.06367235630751f, -0.02518897689879f, -0.01980342529714f,
    -0.21476739645004f, -0.10326661169529f, 0.08129570633173f,
    0.01357397250831f, -0.01529481541365f, -0.16445198655128f,
    -0.10082174092531f, 0.21074874699116f, -0.04186375439167f,
    0.16428481042385f, -0.20125479996204f, -0.07996545732021f,
    -0.04953287169337f, 0.07597135007381f, -0.10010439902544f,
    -0.10870428383350f, 0.02122315764427f, -0.04592812433839f,
    0.05693428590894f, -0.03529778122902f, -0.15125843882561f,
    0.20176415145397f, -0.18787677586079f, 0.18983812630177f,
    -0.16782595217228f, 0.20267835259438f, 0.14438869059086f,
    0.11512579023838f, -0.20090374350548f, 0.11811961233616f,
    0.19500415027142f, -0.11874087154865f, -0.13111767172813f,
    0.10345141589642f, -0.17413540184498f, -0.11524223536253f,
    -0.09681010991335f, -0.07515925914049f, 0.07272626459599f,
    0.04389091953635f, 0.08719635009766f, 0.13547120988369f,
    -0.07598538696766f, 0.08223539590836f, 0.01675707101822f,
    -0.03961686789989f, 0.17064531147480f, 0.12528273463249f,
    -0.14874672889709f, -0.00518533866853f, 0.17420895397663f,
    -0.15892380475998f, 0.00762959942222f, 0.17739190161228f,
    -0.08526219427586f, -0.09859675168991f, -0.09874668717384f,
    0.11146753281355f},
    {0.06093768775463f, -0.87519896030426f, -0.44589042663574f,
    -0.87903350591660f, -0.33840996026993f, -1.06478655338287f,
    0.03158131241798f, -0.61406439542770f, -0.66880214214325f,
    -0.50355607271194f, -0.35375213623047f, 0.07751304656267f,
    -0.64433121681213f, -0.06495313346386f, -0.33198872208595f,
    -0.20999097824097f, -0.05319496989250f, 1.03613281250000f,
    0.32559961080551f, -0.17596080899239f, 0.14829489588737f,
    -0.59604656696320f, -0.21563692390919f, 0.04003830999136f,
    -0.29660338163376f, 0.08766032755375f, -0.78082036972046f,
    0.65816420316696f, -0.19421070814133f, -0.61002916097641f,
    -0.05926427990198f, 0.12177071720362f, 0.13299803435802f,
    -0.16616174578667f, -0.20870378613472f, 0.13865529000759f,
    -0.19920530915260f, 1.07620882987976f, -0.80866217613220f,
    -0.16391888260841f, 0.97034436464310f, 0.45943197607994f,
    0.65630799531937f, -0.16048900783062f, -0.87109339237213f,
    -0.29036852717400f, -0.06251186877489f, -0.00714768189937f,
    0.00148151814938f, -0.19009779393673f, 0.09340368956327f,
    -0.22118030488491f, 0.52231556177139f, 0.47576364874840f,
    0.05751042068005f, 0.16780555248260f, 1.04189014434814f,
    0.01223796606064f, 0.99533051252365f, 0.51424163579941f,
    -0.83138024806976f, -0.20742332935333f, -0.48140120506287f,
    -0.35382667183876f},
    {0.14182309806347f, -0.12652942538261f, -0.01518155168742f,
    -0.23261621594429f, -0.14855507016182f, 0.10005539655685f,
    0.14373393356800f, 0.11960264295340f, -0.11182752996683f,
    -0.12779897451401f, -0.16229438781738f, 0.08862639963627f,
    0.04118241369724f, 0.02044896781445f, 0.20871032774448f,
    -0.02017425000668f, -0.17848885059357f, 0.09128095209599f,
    -0.08107051998377f, 0.19099713861942f, 0.02624833583832f,
    0.13953287899494f, 0.18193233013153f, 0.02750489488244f,
    -0.16641184687614f, 0.01103229820728f, 0.00315504427999f,
    -0.01610253751278f, 0.05113391578197f, 0.15300402045250f,
    0.20228080451488f, 0.11608059704304f, -0.06488530337811f,
    -0.17497709393501f, -0.15473607182503f, 0.02527768909931f,
    0.06282256543636f, -0.15883022546768f, -0.16124883294106f,
    -0.09495490044355f, -0.09774910658598f, -0.16963571310043f,
    -0.04528655856848f, -0.05047686770558f, -0.11288055777550f,
    0.08900557458401f, -0.11861067265272f, -0.14273923635483f,
    0.19208358228207f, 0.09303826838732f, 0.16142521798611f,
    0.13838753104210f, -0.17919822037220f, -0.18746103346348f,
    -0.03801357746124f, 0.19367054104805f, -0.04752568900585f,
    -0.03345435857773f, -0.01588494516909f, -0.04051696509123f,
    -0.11859171092510f, 0.05877484753728f, -0.00417808629572f,
    0.17583371698856f},
    {-0.51790344715118f, -0.04303217306733f, 0.10763081163168f,
    0.42314103245735f, -0.53740489482880f, -0.91923516988754f,
    0.08563221246004f, 0.55858117341995f, -0.30368474125862f,
    -0.11915648728609f, -0.01291268039495f, -2.15536427497864f,
    0.27831602096558f, -0.02755466103554f, 0.11105582863092f,
    -0.73916876316071f, -0.04009221494198f, -0.61388188600540f,
    -0.94813591241837f, 0.11316400021315f, -0.38152718544006f,
    -0.16116420924664f, 0.58827358484268f, 0.30690106749535f,
    0.10687280446291f, -0.06318579614162f, 0.01952020637691f,
    -0.89618641138077f, 0.14974372088909f, -0.64033198356628f,
    -0.28455981612206f, 0.07047241181135f, -0.23380841314793f,
    0.15331386029720f, 0.02675187401474f, -0.17959153652191f,
    0.16062025725842f, -0.38582891225815f, -0.45441100001335f,
    0.06987838447094f, -0.27974689006805f, -0.18054345250130f,
    -1.09727203845978f, -0.87471628189087f, -0.69955760240555f,
    -0.20465216040611f, 0.19661755859852f, -0.22671382129192f,
    -0.00711378455162f, -2.15698480606079f, -0.63488990068436f,
    0.43357881903648f, 0.45976895093918f, -0.03948084637523f,
    -0.14054973423481f, 0.29187911748886f, -0.15963664650917f,
    -0.11850292980671f, -0.58463799953461f, 0.56457191705704f,
    -0.25553613901138f, 0.03197238221765f, 0.01140276808292f,
    0.29025202989578f},
    {0.77846485376358f, -0.10689558088779f, -0.21574655175209f,
    -0.23659099638462f, 0.34223994612694f, 0.00028910159017f,
    0.00399665627629f, -0.28877991437912f, 0.80307358503342f,
    -0.42065310478210f, 0.56189042329788f, 0.21458254754543f,
    -0.05657596141100f, 0.02297382615507f, -0.76908433437347f,
    0.01766571588814f, -0.15245066583157f, 0.11219410598278f,
    0.20700667798519f, -0.05287726595998f, -0.22064512968063f,
    0.23528227210045f, -2.79445624351501f, 0.48795846104622f,
    -0.06045268103480f, -0.15543161332607f, -0.72127050161362f,
    -1.13985383510590f, 0.11743702739477f, 0.23949871957302f,
    0.38373485207558f, 0.16930712759495f, 0.72132319211960f,
    0.11244130134583f, -0.01916273497045f, -0.12135082483292f,
    -0.28154039382935f, -0.46366688609123f, -0.41999393701553f,
    -0.20983105897903f, -0.94394892454147f, -0.60627901554108f,
    -0.66763365268707f, -0.59124958515167f, -0.62437844276428f,
    0.08636319637299f, -0.52916282415390f, -0.21313433349133f,
    0.00714675150812f, 0.08682657778263f, 0.20558771491051f,
    0.74811118841171f, 0.03474450483918f, 0.09606012701988f,
    0.06598968803883f, -0.18810018897057f, -0.26266130805016f,
    -0.25849583745003f, 0.08416470885277f, 0.27378639578819f,
    0.38083046674728f, 0.22620585560799f, 0.03457549214363f,
    0.52728039026260f},
    {-0.62032818794250f, -0.20186175405979f, -0.29725071787834f,
    -1.24315893650055f, -0.92559272050858f, -0.09367588162422f,
    -0.08052236586809f, 0.33888781070709f, -0.37636035680771f,
    -0.20547686517239f, 0.10707681626081f, -0.82964855432510f,
    -0.04032580554485f, 0.09168606251478f, -0.62306672334671f,
    0.20362468063831f, -0.23127260804176f, 0.33716815710068f,
    -0.26532199978828f, -0.25030273199081f, 0.06405349075794f,
    -0.22746780514717f, -0.66277182102203f, -0.13576176762581f,
    0.05781267583370f, -0.33346292376518f, 0.27214950323105f,
    -0.29245382547379f, -0.46835267543793f, 1.15262329578400f,
    -1.69669985771179f, -0.36830824613571f, -1.45984578132629f,
    -0.23143830895424f, -0.09544581919909f, -0.10596139729023f,
    -0.26451286673546f, 0.25352558493614f, -0.63968956470490f,
    -0.13713246583939f, -0.46913129091263f, 0.18456439673901f,
    0.18964520096779f, -0.34969717264175f, -0.30951967835426f,
    -0.64116126298904f, -0.27692687511444f, 0.04679841548204f,
    -0.24072033166885f, -0.02352231740952f, -1.70493841171265f,
    0.79104268550873f, 0.08879660815001f, -0.03145748004317f,
    0.05511705204844f, 0.01970994845033f, -0.07746908068657f,
    0.02105592191219f, -0.17915168404579f, 0.89455664157867f,
    -0.27700859308243f, 0.10116346925497f, -0.33787792921066f,
    -0.75854873657227f},
    {0.36950013041496f, -0.51710969209671f, 0.05064920708537f,
    -0.39535751938820f, -0.55921834707260f, 0.42817884683609f,
    -0.03221498057246f, -0.19052462279797f, -0.43985682725906f,
    -0.45731988549232f, -0.97594821453094f, 0.25822857022285f,
    -0.43910244107246f, 0.09330610930920f, -1.42813134193420f,
    0.08452601730824f, -0.14287193119526f, -0.50300723314285f,
    0.66307663917542f, -0.00770099321380f, 0.14607061445713f,
    -0.12106899917126f, 0.49189808964729f, -1.05251121520996f,
    0.23729622364044f, -0.26675045490265f, 0.04698702692986f,
    0.20980186760426f, -0.14520762860775f, -0.12844550609589f,
    0.43748903274536f, -0.09720671921968f, -0.20934462547302f,
    -0.09579147398472f, -0.14723080396652f, -0.03332625329494f,
    -0.07067172974348f, -0.00569286989048f, -0.82568597793579f,
    -0.00588072324172f, 0.29001685976982f, 0.50600695610046f,
    0.24647599458694f, 0.04446430504322f, 0.18642124533653f,
    -0.72155195474625f, -0.80873596668243f, -0.18543390929699f,
    -0.12637943029404f, -1.29116988182068f, -1.40347492694855f,
    -1.38185930252075f, -0.77616143226624f, -0.72722738981247f,
    -0.05305729061365f, -0.91800844669342f, 0.68612378835678f,
    0.12488730996847f, -0.23826590180397f, -0.12776260077953f,
    0.69051355123520f, 0.24949847161770f, -0.40667435526848f,
    -0.54092341661453f},
    {-0.10465196520090f, 0.01852951943874f, -0.17556591331959f,
    0.10458650439978f, 0.07202184945345f, 0.17188806831837f,
    -0.16189643740654f, -0.21639740467072f, -0.05759844183922f,
    0.12760552763939f, -0.01309010852128f, -0.09863139688969f,
    0.04122873395681f, 0.02909487485886f, -0.12737049162388f,
    -0.00262337829918f, 0.16975764930248f, -0.08644677698612f,
    -0.16678461432457f, 0.13341172039509f, 0.14811259508133f,
    0.01493109762669f, -0.07803089171648f, -0.13152492046356f,
    0.20562860369682f, -0.07363241910934f, 0.01950439810753f,
    0.00570985674858f, 0.14551718533039f, -0.20905654132366f,
    0.07096031308174f, 0.04721929877996f, -0.00008888542652f,
    0.00574561953545f, -0.06977390497923f, -0.15917225182056f,
    0.10954664647579f, 0.18595179915428f, 0.16824685037136f,
    0.13587768375874f, -0.07312881201506f, -0.09138079732656f,
    0.14975732564926f, 0.09237319231033f, -0.00107418303378f,
    -0.14026245474815f, -0.13095858693123f, -0.15843078494072f,
    0.06093443930149f, 0.13824911415577f, 0.12084112316370f,
    0.07705907523632f, -0.13408210873604f, -0.19238761067390f,
    0.15408904850483f, 0.19228944182396f, -0.12880362570286f,
    0.02362808585167f, 0.12129617482424f, -0.15514899790287f,
    -0.03691294789314f, -0.16282610595226f, -0.13470537960529f,
    0.04231906309724f},
    {-0.22821079194546f, -0.07488559186459f, -0.08491586893797f,
    -0.10406322032213f, -0.13183836638927f, -0.01246775873005f,
    -0.18113914132118f, 0.00517478818074f, -0.17130753397942f,
    0.14380633831024f, -0.12915891408920f, -0.03594965115190f,
    -0.10864543169737f, 0.20436875522137f, 0.01884159632027f,
    0.12682004272938f, -0.01411391794682f, 0.12438407540321f,
    0.33221927285194f, 0.17906589806080f, 0.09291267395020f,
    -0.02048385329545f, 0.02415042184293f, -0.09866022318602f,
    0.01177769340575f, -0.10875681787729f, 0.21583512425423f,
    0.24920631945133f, -0.13672062754631f, 0.30413052439690f,
    -0.24089902639389f, -0.12335314601660f, -0.24572908878326f,
    -0.15494495630264f, -0.03203183785081f, -0.17742425203323f,
    -0.18914283812046f, 0.01103607192636f, 0.03617946058512f,
    -0.09515218436718f, 0.23037828505039f, 0.13074108958244f,
    -0.06261269003153f, -0.22299970686436f, 0.12030121684074f,
    -0.21692517399788f, -0.08209101855755f, -0.15746809542179f,
    0.10648743063211f, -0.04715331643820f, -0.08829738944769f,
    -0.13202492892742f, 0.16658097505569f, 0.08108311146498f,
    -0.21349236369133f, 0.08445119112730f, -0.25665393471718f,
    -0.08314789831638f, -0.03593467921019f, 0.10323682427406f,
    0.01554291322827f, -0.10831370949745f, -0.14783698320389f,
    0.10650184750557f},
    {-0.92766320705414f, 0.18252685666084f, -0.11702056229115f,
    0.19851812720299f, -0.44798657298088f, 0.47482863068581f,
    -0.02688343822956f, 0.29580551385880f, 0.05880571529269f,
    -0.24220600724220f, -0.60695856809616f, -0.52289307117462f,
    0.16681337356567f, 0.02343757264316f, 0.03500909730792f,
    0.01888223551214f, 0.10424789786339f, -0.12437151372433f,
    0.28159511089325f, 0.01823363453150f, -0.06796270608902f,
    0.44356825947762f, -2.53504323959351f, 0.26997676491737f,
    -0.28088665008545f, -0.01983368210495f, -1.03861594200134f,
    -1.18991577625275f, -0.03761795908213f, -1.20914769172668f,
    -0.02464503608644f, -0.22288829088211f, -0.52371239662170f,
    -0.05375549197197f, -0.08154887706041f, -0.16619142889977f,
    -0.20937411487103f, -0.06938319653273f, 0.53688412904739f,
    -0.02889182046056f, -0.31383648514748f, -0.23296011984348f,
    -0.06819345057011f, -0.18812589347363f, 0.15931443870068f,
    -0.44028317928314f, -0.06819688528776f, -0.19578751921654f,
    0.13441298902035f, 0.75763010978699f, -0.30496850609779f,
    0.00352605595253f, 0.36785057187080f, 0.16431613266468f,
    -0.14749771356583f, -0.04062155261636f, 0.11447343975306f,
    -0.13844372332096f, 0.26051887869835f, -0.41709941625595f,
    0.39370802044868f, -0.78479778766632f, 0.12669630348682f,
    0.10127995908260f},
    {-0.02550825290382f, -0.13775694370270f, -0.12907458841801f,
    -0.26199099421501f, -0.35839748382568f, 0.05858157947659f,
    -0.06424381583929f, -0.15758803486824f, -0.45321345329285f,
    0.41322919726372f, 0.21765209734440f, -0.85257816314697f,
    0.09316809475422f, -0.24397908151150f, -0.72118264436722f,
    0.12155331671238f, 0.05841903388500f, 0.18894535303116f,
    -0.13308988511562f, -0.05344285815954f, 0.43484738469124f,
    -0.50299984216690f, -0.47960573434830f, 0.01518485788256f,
    0.17822241783142f, -0.06919980049133f, -0.27769941091537f,
    0.09505778551102f, 0.15455202758312f, 0.26538994908333f,
    -1.49993073940277f, -0.38576167821884f, 0.21542128920555f,
    -0.19903281331062f, 0.40731891989708f, -0.25207665562630f,
    -0.13571453094482f, 0.19021780788898f, -1.78988802433014f,
    -0.12691996991634f, -0.32606852054596f, 0.22435060143471f,
    0.60664057731628f, -0.17015869915485f, -0.54582685232162f,
    -0.23501560091972f, -0.48499473929405f, -0.20551912486553f,
    -0.16885538399220f, 0.19497953355312f, -0.82135748863220f,
    -0.21324770152569f, 0.37707829475403f, 0.26982128620148f,
    0.13065125048161f, 0.39307841658592f, 0.26763230562210f,
    -0.21648840606213f, 0.02447860501707f, 0.02288163639605f,
    -0.34986439347267f, -0.57796418666840f, 0.05747618898749f,
    0.18586395680904f},
    {0.17621602118015f, 0.15575696527958f, -0.17085973918438f,
    -0.02945992723107f, -0.03532359004021f, -0.19983266294003f,
    -0.01467630267143f, 0.21778109669685f, 0.04964859783649f,
    0.18332551419735f, 0.12873123586178f, -0.09974924474955f,
    -0.04926820099354f, 0.15853078663349f, 0.19441160559654f,
    -0.13083583116531f, 0.06829293072224f, -0.18266519904137f,
    0.09164760261774f, 0.06655214726925f, 0.15868707001209f,
    -0.15275467932224f, 0.21305523812771f, 0.15591256320477f,
    -0.02718560583889f, 0.15562672913074f, 0.06065429747105f,
    0.14305762946606f, 0.09257586300373f, -0.21651549637318f,
    -0.05833417177200f, 0.16004160046577f, -0.15863159298897f,
    -0.11389462649822f, 0.17130605876446f, -0.10673913359642f,
    0.00820878148079f, 0.07728142291307f, 0.01868066377938f,
    0.12451796233654f, -0.03714420273900f, -0.09105691313744f,
    -0.15848121047020f, 0.08430074155331f, -0.13070186972618f,
    -0.07684951275587f, -0.11674868315458f, -0.18372908234596f,
    0.04823569953442f, 0.20859561860561f, -0.13250008225441f,
    -0.02041636966169f, -0.15979619324207f, 0.02587641775608f,
    0.08434267342091f, -0.09423379600048f, 0.06830702722073f,
    0.18231265246868f, 0.01710923016071f, -0.15557873249054f,
    0.17224965989590f, 0.12643097341061f, -0.17302370071411f,
    -0.10463368147612f},
    {0.36767125129700f, -0.13462007045746f, -0.57576113939285f,
    0.25510638952255f, 0.21396373212337f, -1.48597514629364f,
    -0.02873996831477f, 0.40250819921494f, 0.86772143840790f,
    -0.66180652379990f, -1.08373272418976f, 0.05986245721579f,
    -0.31687980890274f, -0.06764598935843f, 0.61339557170868f,
    -0.58968055248260f, 0.07668144255877f, 0.42316550016403f,
    -0.03602030500770f, 0.08164053410292f, 0.16321857273579f,
    0.28545197844505f, -0.54448252916336f, -0.54971450567245f,
    -0.16560597717762f, -0.24208068847656f, 0.01812987774611f,
    -0.87386500835419f, 0.13928978145123f, -4.23918771743774f,
    -1.03633999824524f, 0.44455271959305f, -0.47798743844032f,
    0.02777393162251f, 0.30621159076691f, -0.10356263071299f,
    -0.04057264328003f, 0.02984023652971f, -0.42664405703545f,
    -0.09163921326399f, -0.23242436349392f, -0.59792006015778f,
    -0.39241850376129f, -0.07197873294353f, -2.25442385673523f,
    -0.17098316550255f, 0.42585587501526f, 0.05671910569072f,
    0.06304399669170f, -0.11865047365427f, 0.02713752351701f,
    -1.07613492012024f, -0.92476189136505f, -0.30911156535149f,
    -0.02920667827129f, -0.73581486940384f, -0.02363636344671f,
    0.14484842121601f, 0.01195799838752f, -3.65297579765320f,
    0.13913919031620f, -0.45206925272942f, 0.09488306194544f,
    -0.67843341827393f},
    {0.52593821287155f, 0.20548634231091f, 0.10561214387417f,
    -0.25300139188766f, 0.32697686553001f, -0.12528982758522f,
    0.00749551504850f, 0.69789218902588f, -0.24651415646076f,
    -0.14430996775627f, 0.70657300949097f, -0.12030077725649f,
    -0.09518612921238f, 0.04172910749912f, 0.42362099885941f,
    0.36298555135727f, 0.12274487316608f, 0.14787691831589f,
    0.08025170117617f, -0.05143536627293f, -0.32286736369133f,
    -0.31163927912712f, 0.11290968954563f, -0.02699093148112f,
    -0.15945386886597f, 0.02657714486122f, 0.50057327747345f,
    0.87698376178741f, 0.19591982662678f, -0.37898170948029f,
    0.01585216261446f, -0.18768675625324f, 0.33907866477966f,
    -0.03077337145805f, 0.54608368873596f, 0.06423501670361f,
    0.18342240154743f, -0.15205615758896f, -0.08706300705671f,
    0.13634137809277f, -0.14376747608185f, -0.30726662278175f,
    0.19004106521606f, 0.50068122148514f, 0.40773797035217f,
    -0.42004743218422f, 0.06941931694746f, -0.18245041370392f,
    0.16017062962055f, 0.52287495136261f, -0.06354914605618f,
    -0.44984620809555f, -0.38435921072960f, 0.16406095027924f,
    0.07083569467068f, 0.07563204318285f, 0.61695325374603f,
    -0.07316197454929f, -0.19877064228058f, 0.01187016442418f,
    0.11542800813913f, -0.31940519809723f, 0.31526777148247f,
    -0.44049403071404f},
    {-0.02882795035839f, 0.02022016420960f, 0.01274578459561f,
    0.08623754233122f, -0.23711866140366f, -0.11071984469891f,
    -0.06020562350750f, 0.15168635547161f, -0.18283949792385f,
    -0.26639071106911f, 0.12156165391207f, -0.10626488924026f,
    0.10106639564037f, 0.04655225574970f, -0.07235813140869f,
    -0.15846815705299f, 0.00717155635357f, -0.02434348315001f,
    -0.19197146594524f, 0.13792608678341f, -0.04104201495647f,
    0.00110788107850f, 0.09826850146055f, 0.04362136125565f,
    -0.07233150303364f, 0.15402369201183f, 0.02935681119561f,
    -0.12855932116508f, 0.16375181078911f, -0.14328059554100f,
    0.30353769659996f, -0.05891389772296f, 0.06530756503344f,
    -0.15315583348274f, -0.20156057178974f, 0.09435383975506f,
    -0.10724040865898f, -0.05404618754983f, 0.26837828755379f,
    -0.17000813782215f, -0.23749107122421f, -0.17781244218349f,
    -0.00245280284435f, -0.14145517349243f, -0.16750761866570f,
    -0.13268835842609f, 0.00847444497049f, -0.02695576846600f,
    -0.18205310404301f, -0.12114436179399f, 0.14696900546551f,
    -0.16923961043358f, -0.18102973699570f, -0.06241793185472f,
    -0.17764689028263f, -0.09817709773779f, -0.18691758811474f,
    -0.00023894011974f, -0.14350043237209f, -0.06094144284725f,
    0.04327161610126f, 0.02813244424760f, 0.11549387872219f,
    0.27621904015541f},
    {0.65281307697296f, -0.34199509024620f, 0.32562720775604f,
    0.28722947835922f, 1.02489423751831f, -0.86479568481445f,
    -0.16674773395061f, -0.55293250083923f, 1.02201378345490f,
    0.22236078977585f, -0.05150504037738f, -0.26854842901230f,
    -0.23520837724209f, -0.00140639871825f, 0.70420765876770f,
    -0.73505836725235f, -0.09252560883760f, 0.33702200651169f,
    -0.38990420103073f, -0.11361324042082f, -1.82660460472107f,
    0.14496830105782f, -1.00999295711517f, 0.60120236873627f,
    0.01242402382195f, -0.05052469298244f, -0.50362420082092f,
    0.51055628061295f, -0.19713395833969f, -0.47431272268295f,
    0.40362241864204f, 0.71296203136444f, -0.19228349626064f,
    -0.01199254486710f, -0.40406897664070f, -0.29074624180794f,
    -0.32295209169388f, 0.01067192852497f, 0.67113059759140f,
    -0.10456913709641f, -0.14269150793552f, -0.09601939469576f,
    -0.09085633605719f, 0.75539058446884f, 0.73965829610825f,
    0.47292175889015f, 0.77288562059402f, -0.10550802201033f,
    -0.14460140466690f, 1.03450405597687f, 0.68349426984787f,
    0.56000912189484f, 0.47569072246552f, -0.24172352254391f,
    -0.00320623116568f, 0.46946832537651f, -0.07919748127460f,
    0.05031688511372f, 0.44267499446869f, -0.02056673169136f,
    0.65780055522919f, -0.09227269142866f, -0.27978134155273f,
    -0.02485053241253f},
    {-0.11024695634842f, 0.25081533193588f, 0.65450996160507f,
    -1.11883759498596f, -0.04465749859810f, -0.24886117875576f,
    -0.17299155890942f, -0.63813310861588f, -0.88587778806686f,
    -1.16681957244873f, 1.83637285232544f, -1.06378173828125f,
    -0.13071301579475f, -0.05257875099778f, -0.67657864093781f,
    -0.19768728315830f, 0.06999981403351f, -1.44442605972290f,
    -0.70203059911728f, -0.07669024169445f, -0.69000363349915f,
    0.46421363949776f, -0.04271551966667f, 0.67888182401657f,
    0.44233933091164f, -0.10414109379053f, -1.50244629383087f,
    -0.40684759616852f, 0.13455648720264f, -2.44001936912537f,
    0.49569374322891f, 0.06824872642756f, 0.15207606554031f,
    0.06934474408627f, 0.30285060405731f, -0.19450576603413f,
    -0.15856456756592f, 0.22059753537178f, 0.23440861701965f,
    0.07413665950298f, 0.18578304350376f, -0.38268277049065f,
    0.17771849036217f, -0.00464360788465f, -0.01463363692164f,
    -1.04061949253082f, 0.24658049643040f, -0.10284535586834f,
    -0.17011591792107f, 0.90210866928101f, -0.14054106175900f,
    -0.44382590055466f, -0.62262600660324f, -0.57658237218857f,
    0.06679026782513f, -0.92324662208557f, -0.22435858845711f,
    0.04603195190430f, -0.07347448170185f, -0.39604479074478f,
    0.07204868644476f, -0.38485243916512f, -0.65343427658081f,
    -0.14550070464611f},
    {-0.07963821291924f, 0.05659296363592f, -0.12601022422314f,
    -0.04376192763448f, 0.19437251985073f, -0.08945267647505f,
    -0.01362270116806f, -0.22065404057503f, 0.09176602959633f,
    0.18523918092251f, 0.07075793296099f, -0.00632892176509f,
    0.12210392206907f, 0.01087702810764f, -0.01869343034923f,
    -0.13077981770039f, 0.10100026428699f, -0.03496949374676f,
    0.04886204749346f, -0.00653457641602f, 0.01744002290070f,
    -0.10956829041243f, 0.15079037845135f, -0.08124617487192f,
    -0.21422398090363f, -0.09053862094879f, 0.03301157057285f,
    -0.02358700335026f, 0.14564333856106f, 0.00743973162025f,
    -0.20650301873684f, 0.09412940591574f, 0.01746626198292f,
